nep4_zbl 8 Ca Si O H Al Fe Na K 
zbl 1 2
cutoff 6 5 384 206
n_max 4 4
basis_size 8 8
l_max 4 2 1
ANN 80 0
  1.8783185e-01
  8.1737496e-02
 -3.3021018e-01
  2.1992320e-01
  2.2789603e-01
  1.2947309e-01
  3.4468156e-01
  1.2140340e+00
 -3.4841216e-01
  6.4360929e-01
 -5.8698608e-03
 -4.5320517e-01
  2.6841862e+00
  1.1460463e-01
  3.9362109e-01
 -1.7394744e+00
  1.3487703e-01
  6.6800274e-02
 -6.8615191e-02
  4.6734729e-01
  1.4033601e-01
 -1.4768791e-01
  1.3546767e-02
 -4.0303642e-01
  1.9323769e-01
  1.7818347e-01
 -9.3742244e-02
  6.3232458e-01
  1.0306560e+00
 -1.4573996e-01
  1.5321143e-01
 -5.1286930e-01
 -3.2619914e-01
 -1.4763172e-01
 -4.5106682e-01
 -1.8652222e+00
  1.6284904e+00
 -9.2453533e-01
 -3.8002722e+00
 -1.5387205e+00
  9.0854764e-01
 -7.2564512e-01
  1.7705255e+00
  3.4897573e+00
 -3.0991209e-01
  8.6617154e-01
 -3.2457507e-01
 -2.7694067e-01
  7.2599965e-01
  2.4408123e-02
 -3.6508799e-01
 -8.6206919e-01
  4.6182293e-02
 -2.2142035e-01
 -2.8539667e-01
 -1.3783076e-01
  9.8472279e-01
 -1.4640789e+00
  1.2169576e+00
  1.3065730e+00
  6.5283698e-01
 -2.7796572e-01
  2.3904172e-01
 -1.9787307e-01
  1.5755273e+00
  1.9849071e-01
  6.2939084e-01
 -3.7221023e-01
  7.8677744e-02
  3.1105230e+00
 -2.8467262e+00
  1.2564965e+00
  5.7262220e+00
 -1.6216866e+00
 -5.9018409e-01
  5.3573287e-01
  3.0553281e-01
 -1.1323214e+00
  7.8938097e-01
 -1.6323885e-01
 -5.4503304e-01
 -7.1511917e-02
  3.1321304e+00
 -4.5770624e-01
 -1.2395515e-01
  2.1359406e-01
  2.6830837e-01
  1.9316679e+00
 -6.9777298e-01
 -5.2641714e-01
  1.3006833e+00
 -2.3688491e-01
 -1.2683276e+00
 -3.9720505e-01
  1.2929894e+00
 -1.2966652e-01
  4.2556456e-01
  4.1489133e-01
  1.9164997e-01
  3.0704290e-01
 -1.3677358e-02
  3.7058046e-01
 -3.1848887e-01
 -5.4538536e-01
  6.8115105e-04
  8.5535610e-01
 -4.9918303e-01
  2.4190341e-01
 -4.4634814e+00
  1.8336548e+00
  1.2911163e-01
 -3.8421553e-01
 -5.9660798e-01
 -1.1958821e+00
 -3.0384192e-01
  3.9808460e-02
  1.9157908e-03
  7.3500150e-01
 -4.5939898e-01
 -2.6252272e-02
 -6.2932426e-01
 -9.0513933e-01
  4.8309961e-01
  1.0303154e+00
  7.9891324e-01
  7.7352457e-02
 -2.9758361e-01
 -2.5540192e+00
  5.8093017e-01
  2.2954364e-01
  2.3888076e-02
 -2.6056085e+00
 -2.0228742e-01
 -2.9026374e-01
  5.5739980e-02
  2.1605308e-01
  1.9015172e-01
  3.5992736e-01
  5.4543659e-02
 -4.0283102e-01
 -8.6562854e-01
  2.4523721e+00
  2.9530722e-01
 -1.3712864e-01
 -8.6652023e-01
 -1.8943767e-01
  6.2107784e-03
 -1.4770758e+00
 -7.0999783e-01
 -5.1105487e-01
 -5.6041938e-01
 -2.0808335e-01
 -4.0649775e-01
  1.9689590e-01
 -6.0241163e-01
 -5.4529601e-01
 -4.4882771e-01
 -1.1994938e+00
 -2.5806284e-01
  2.6470238e-01
 -4.4253063e-01
 -4.5783961e-01
 -2.6655334e-01
 -8.3338439e-02
  4.4221801e-01
  2.2816485e-02
 -1.7043551e+00
  1.1579481e-01
 -3.9901146e-01
 -2.6373172e-01
  3.4665987e+00
  4.3446682e-02
  7.7984655e-01
 -6.7348123e-02
  1.2436832e-01
 -3.4221986e-01
  9.2488152e-01
 -2.0877229e-01
 -7.5191814e-01
  6.8794543e-01
 -2.7036145e+00
 -2.3487840e+00
 -5.7553962e-02
  6.7858946e-01
 -3.1300268e+00
 -4.7355339e-01
 -5.9622079e-01
 -7.9200363e-01
  1.3895546e+00
 -5.3347695e-01
 -1.4213397e-01
 -4.2244848e-03
  3.6163464e-01
  8.7745830e-02
  2.0306190e-02
 -1.0457055e-01
 -3.2988995e-01
 -1.7034586e-01
  6.3436098e-02
 -2.2751975e-01
  1.0385180e-01
 -2.0047288e-01
 -2.0201519e-01
  1.1880038e+00
  1.5303345e-01
 -2.2207335e-01
  6.6466397e-01
  9.3485052e-03
  5.1325001e-02
  3.0693662e-01
 -1.3854965e+00
  3.0696049e+00
 -1.3932471e-01
  4.1094276e-01
  2.9887506e-01
  9.0194023e-01
 -1.9414299e+00
 -2.5578856e-01
  2.4882217e-01
  1.7580114e-01
 -4.3679096e-02
 -5.6395929e-02
 -5.1265329e-01
  3.0573320e-01
  2.2489340e+00
 -1.3581009e-01
 -7.0863169e-01
 -6.3394380e-01
  2.9521400e-01
  6.0297358e-03
 -4.0153754e-01
  8.7222300e-02
 -2.4313588e+00
  1.1117663e+00
  3.5803798e-01
 -2.9563327e+00
 -7.0410706e-02
 -7.9756522e-01
  4.8259605e-02
 -8.6127087e-02
 -1.0283652e-01
  1.3327834e-01
 -1.6726956e-02
  2.2296274e-01
 -2.8112921e-01
 -7.4642360e-01
 -9.5810986e-01
 -1.3027513e+00
 -2.0054557e+00
  9.6456343e-01
 -6.0361183e-01
 -3.6212108e-01
  1.0965511e+00
 -4.5280528e-01
 -8.3136636e-01
 -9.5906395e-01
 -2.4293700e-02
  1.8342770e+00
 -1.4360222e-01
  1.7866132e-01
  5.3009951e-01
  4.7598559e-01
 -1.3575648e+00
  2.6643521e-01
 -3.0157312e-03
  1.1645398e+00
  7.1520589e-02
  4.7361231e+00
 -6.8435836e-01
 -1.3807680e-01
 -5.7990830e-02
  5.9266651e-01
 -3.8812271e-01
  1.9740966e-01
 -3.0155876e-01
 -2.6585647e-01
  6.2050980e-01
  1.8119982e-01
  3.7291127e-01
 -6.1982483e-02
 -3.1215768e+00
 -5.1408811e+00
 -2.8687396e+00
  3.8697393e+00
  3.3237681e-02
  4.6046227e-01
 -5.0964695e-01
 -4.7848108e-01
 -1.6909778e-02
  7.5004739e-01
  1.4192273e-01
 -2.5704608e+00
  1.1901447e+00
 -6.5787208e-01
 -1.7492767e-01
  3.3789251e-02
 -2.3907444e-01
 -3.6190617e-01
  5.3982449e-01
 -9.7953099e-01
 -2.0049925e+00
 -3.7096626e-01
  1.5333441e+00
  8.3549798e-01
 -1.3086126e+00
  8.7041333e-02
  1.8530576e-02
  4.8067525e-01
  3.3017063e-01
 -3.2536411e-01
 -1.0790712e-01
 -5.7151522e-02
  1.8557473e-01
 -1.3314420e-01
  2.1368735e-01
  1.2066079e+00
  1.3270864e+00
 -2.5510519e+00
  3.3862429e+00
 -9.1511816e-01
  2.2262894e-01
  8.7141353e-01
 -7.2716779e-01
 -5.4231036e-01
  1.2783728e+00
  1.5224748e+00
  8.0755013e-01
  1.0133422e-02
 -7.5304735e-01
 -6.4040738e-01
  9.7233039e-01
  1.0050664e+00
 -1.5516694e-01
 -1.8232754e+00
  1.1873095e+00
  1.3246104e+00
 -1.7800964e+00
 -4.7052744e-01
 -4.2667553e-01
  3.4302112e-01
  1.9201134e+00
 -1.0503715e+00
  2.5634468e-01
 -4.0407410e-01
  3.4779987e-01
  4.1099465e-01
  2.7752796e-01
  1.0204027e+00
  7.9436219e-01
  1.4177573e-01
  3.7586782e-02
  2.5984195e-01
 -1.0817036e-01
 -1.0566291e+00
 -1.0848571e+00
  3.3837922e+00
 -2.2483828e-02
 -1.5573877e+00
  5.7598591e-01
 -3.0779925e-01
  5.7711679e-01
  2.7093783e-01
  4.9343228e-01
  6.4544523e-01
  4.5159042e-02
 -4.4416428e-02
  1.4795834e-01
 -1.7916365e-01
 -3.1080154e-01
 -7.7329248e-01
  5.1217687e-01
 -5.1778398e-02
  6.0305953e-01
  2.7453327e-01
  5.5114049e-01
 -4.8275858e-01
  3.0663893e-01
  1.2993455e-01
 -3.8272521e-01
  5.9574127e-01
 -3.4613952e-01
 -5.3993368e-01
 -6.9725193e-02
  2.5614366e-01
  3.2342026e+00
  4.6099779e-01
  3.5952773e+00
 -1.2305137e+00
 -2.1181483e+00
 -5.9204969e+00
 -3.8176045e+00
  1.5013587e+00
  8.8378727e-01
  1.4913124e+00
 -3.4207928e-01
 -1.7030787e+00
  6.4166278e-01
 -3.0801315e+00
 -2.0467968e+00
 -4.1943061e-01
 -1.3229805e+00
 -6.1281270e-01
 -8.0976760e-01
  2.2947373e+00
  1.3995956e+00
 -1.4084404e-02
 -4.8177218e-01
  7.1227627e+00
 -2.6053507e+00
 -1.6344032e+00
  3.8255367e-02
  8.9007866e-01
  4.0412597e-02
  6.9412619e-02
 -6.3059248e-02
 -5.0316477e-01
  4.8217896e-01
 -3.1142733e-01
  4.8491868e-01
  3.1197491e-01
 -1.6978019e-01
  7.9255784e-01
 -3.8076317e-01
 -3.8750380e-01
 -3.2906476e-01
 -8.3602327e-01
 -9.3821362e-02
  1.5471338e+00
  1.6251183e-01
 -3.7582967e-01
  1.3699399e-01
 -1.7402160e-01
 -2.5966579e-02
  4.6087039e-01
 -4.7227693e-01
 -6.6859919e-01
  1.3173477e-01
  2.7959746e-01
  1.0158359e-01
  4.4158101e-02
 -5.8398569e-01
 -4.8037502e-01
  7.0140466e-02
  3.1279591e-01
  6.7459428e-01
 -2.8888479e-01
 -1.2137403e-01
 -5.8225685e-01
 -2.2238398e+00
 -1.2686343e-01
  2.3683000e-01
 -9.0863347e-02
 -2.2760287e-01
 -4.2904392e-01
  2.3240066e-01
 -4.5645940e-01
 -1.8813475e+00
  6.7720594e+00
 -5.6182075e-01
  2.0061181e-01
 -4.0187845e-01
 -3.0886400e-01
 -6.3473046e-01
 -7.5479990e-01
 -5.6093931e-01
  4.3702823e-01
  6.4387001e-02
 -4.5297761e+00
 -1.8494332e+00
 -9.3225235e-01
 -4.4816428e-01
  3.6067334e-01
 -3.4604344e+00
 -3.9723167e+00
 -8.3684158e-01
 -4.6125689e-01
  4.0909985e-01
 -9.5704389e-01
 -2.6299524e+00
 -8.9862818e-01
 -1.8578354e-01
  1.8302352e+00
 -3.8938847e-01
  4.1552019e-01
  3.7728888e-01
  2.9561744e+00
 -2.4251096e-01
 -6.2805849e-01
  2.3169363e-01
  5.9282877e-02
 -1.2766904e-01
 -2.1486633e-02
 -9.6947469e-02
 -2.4798116e-01
 -1.0006523e-02
 -6.3737786e-01
 -3.4246713e-02
 -3.2636330e-01
 -3.2747820e-01
 -4.4662419e-01
  3.8259968e-01
 -4.9557009e-01
  5.9617722e-01
 -1.6693746e+00
  5.3027611e-02
 -4.0095162e-02
  4.1271287e-01
  4.1362584e-01
  6.5668714e-01
  3.0364182e-02
 -4.9969833e-02
  2.7107090e-02
 -8.3870247e-02
  4.0482923e-01
 -1.8988773e-01
  3.2304394e-01
  2.0296389e-01
  4.9541301e-01
 -4.8540545e-01
 -1.1348240e-01
  7.5644702e-01
  1.7389375e+00
  7.0778185e-01
 -5.1122254e-01
  1.2640572e-01
 -5.8195984e-01
  7.3190248e-01
  2.9711032e-01
  3.2837880e-01
 -6.5176493e-01
 -3.6250463e+00
 -1.2413640e+00
  1.4474088e-01
 -1.7084878e-02
  3.5644928e-01
 -1.1155792e-01
 -5.0169510e-01
  3.9161494e-01
 -1.6936831e-01
  2.1469529e-01
 -2.4483852e-01
  4.4615358e-01
 -1.5622634e-01
 -5.6584460e-01
 -4.8407831e+00
 -8.2463793e-02
  2.5628176e-01
  1.4143160e-02
 -2.1179613e-01
  8.8268660e-02
 -2.5568718e-01
  1.3301699e+00
  6.0009247e-01
 -2.7180198e-01
  2.6338492e-02
  1.1608878e-01
  3.0556783e-01
  4.4199388e-02
 -5.7403833e-01
 -2.4122726e-02
 -1.0261368e+00
 -1.9636559e+00
 -3.2377250e+00
 -3.3661868e-02
  3.9058387e+00
  3.3171797e-01
 -9.8977141e-02
 -1.1637779e+00
 -8.8672853e-01
 -7.0618045e-01
  1.2586723e-01
 -7.7512020e-01
 -3.6616597e-01
 -1.8562498e+00
  8.0245640e-03
  8.4057295e-01
 -7.2607833e-01
 -3.2496783e-01
 -8.9316565e-01
 -2.5202131e-01
  7.4898112e-01
  1.7228928e+00
 -7.5819093e-01
  1.0914339e+00
 -2.5342593e+00
 -3.6086527e-01
 -3.4645414e-01
  2.6623583e-01
 -2.0871677e-01
 -4.3112713e-01
 -6.9659972e-01
  5.9324190e-02
 -4.0986228e-01
 -1.0797307e-01
  2.2645223e-01
 -1.6706952e+00
 -5.4203782e+00
 -2.8978872e+00
  1.2813152e+00
  1.5940430e+00
  3.5974458e-01
 -4.1746926e-01
 -6.0507512e-01
  2.7641219e-01
  1.1765393e+00
 -9.2545599e-02
  2.3044913e-01
  2.1068180e-01
  3.2665908e-01
 -1.9857968e-01
 -9.3846925e-02
  2.5102754e+00
  2.8647816e-01
  2.3029702e+00
 -4.1012529e-01
 -2.2409151e+00
 -9.1954696e-01
 -2.2578965e-01
 -6.3057280e-01
  1.4872169e+00
  5.0224298e-01
 -4.7734044e-02
 -1.4261073e+00
  8.3286919e-02
 -4.9986595e-01
  1.8945539e-02
  2.5272010e-02
  4.2575076e-02
 -6.8196964e-01
 -4.5672563e-01
 -2.0299964e+00
  1.7089993e+00
 -2.2609792e+00
  1.3890663e+00
  3.6214511e+00
  6.2196445e-01
  1.5028752e+00
 -5.7641262e-01
 -1.3347892e+00
  6.8390715e-01
 -2.6281586e+00
  1.2321517e+00
 -1.1542112e+00
 -1.5285653e+00
  8.2056987e-01
  1.4706016e+00
  6.4846158e-01
 -7.8049600e-01
 -3.1873763e+00
 -1.2268568e-01
  3.0557709e+00
  1.5636961e+00
 -8.9625597e-01
 -1.3069381e+00
 -8.9652222e-01
 -7.0819251e-02
 -1.6250230e-01
  1.4474140e-01
  4.4859910e-01
 -5.6538570e-01
  2.6671169e+00
  4.5264056e-01
  5.8226582e-02
  3.5833722e-01
  7.9641795e-01
  3.3875539e+00
  8.9337558e-02
 -5.0608480e-01
 -2.3972924e+00
 -4.5146301e-01
  4.4591537e-01
  3.3684352e-01
  1.3490537e-01
 -7.5818419e-01
  6.3529050e-01
  9.0193506e-03
  4.5081472e-01
 -4.8809528e-01
  3.4654284e-01
 -1.3612758e-01
 -5.1812786e-01
  9.7041659e-02
  6.7700881e-01
 -7.6133841e-01
  6.3797748e-01
  1.1023993e+00
 -2.8350955e-01
  1.1624339e+00
  9.7182363e-01
 -2.4188111e-02
  2.5288683e-01
 -5.3273462e-02
 -6.8299182e-02
  1.1901157e-01
  2.5076035e-01
  8.1552076e-01
  2.1866220e-01
 -4.7137555e-01
  3.5583407e-02
 -7.2415903e-02
  5.4303098e-01
 -9.5498312e-01
  3.6657137e-01
 -2.9071131e+00
 -3.0482049e+00
 -4.3477569e-02
 -1.4903904e+00
  1.3391412e+00
 -1.2989060e+00
 -8.7434542e-01
 -1.4360850e-01
 -1.6258659e+00
 -1.1075871e+00
 -2.9861560e+00
 -3.4643012e-01
  1.6220149e-02
 -6.6761804e-01
 -1.0727322e-01
 -2.1952047e+00
 -1.4473689e-01
 -1.8235712e+00
  8.6829716e-01
 -2.7818790e-01
 -9.4409472e-01
  5.4081780e-01
  2.2074340e-01
 -4.3406832e-01
 -6.4465678e-01
 -1.0505911e+00
 -3.1099638e-01
 -4.2027074e-01
 -4.2558739e-01
  4.4825882e-02
 -4.8009798e-01
 -1.1168308e-01
  1.6887146e+00
  3.3886464e+00
  2.9053805e+00
  3.9973694e-01
  8.8160342e-01
 -1.3909177e+00
 -4.2637965e-01
  1.7678074e+00
  4.8290643e-01
  4.1392824e-01
 -1.1333254e-01
 -5.7959551e-01
  2.0209923e+00
 -4.0774831e-01
  1.7823046e-01
  3.3452481e-01
  3.9630551e-02
  1.9062474e+00
 -6.8153536e-01
  2.2335523e-01
 -7.3576665e-01
 -2.2015502e-01
  5.9195673e-01
 -5.1547378e-01
 -4.5189920e-01
  4.1536036e-01
  1.4152259e-01
 -7.4022368e-02
 -7.9827458e-01
 -2.4082845e-01
 -1.2093674e-01
 -9.6738242e-02
 -1.9309264e-01
 -2.4118139e-01
  8.3117448e-02
  3.8735431e-02
 -2.6698264e-01
  1.8667842e+00
  2.1009080e+00
 -3.2833067e-01
  3.7375596e-01
 -3.9858553e-01
  3.6302021e-01
  1.0198496e-01
  4.0382436e-01
  3.8063124e-01
 -5.6105381e-01
 -2.3981685e-02
 -5.1039785e-01
 -6.0125250e-01
 -7.9336119e-01
 -6.8017161e-01
  3.4471694e-01
  1.2146533e+00
 -5.8107489e-01
  4.2906684e-01
  1.4014041e-01
  3.0739364e-01
  4.1143271e-01
  1.4582853e-01
  2.4177171e-01
 -1.2398243e-01
 -8.3416772e-01
  5.3269528e-02
 -4.1495603e-02
 -1.3099626e-01
  5.7730538e-01
  2.3691805e-01
 -7.0266023e-02
 -2.2590765e-01
 -2.6102245e+00
  5.5030527e+00
  2.2265899e+00
  2.7429922e+00
  2.3287468e+00
 -4.7189701e-01
 -7.8595978e-01
  9.3580729e-01
 -6.0185033e-01
  3.8180056e-01
 -9.5005637e-01
 -1.7129318e-01
 -1.0935802e-01
 -9.2514634e-01
  6.7588043e-01
  6.2222534e-01
  3.6945713e-01
 -2.9019282e+00
 -5.0603473e-01
 -1.0660106e+00
  2.1307348e-01
  1.2532783e-01
 -8.2012820e-01
 -2.7647790e-01
  1.1072167e-01
 -8.0528840e-02
 -8.4245694e-01
 -6.4803183e-01
  6.3419181e-01
  1.5061201e+00
 -1.8879642e-01
  3.2660615e-01
  4.9267676e-01
 -4.6686545e-02
 -4.3982512e-01
 -2.8325422e-02
  8.5753938e-03
  2.9432079e-01
  5.5102277e-01
  8.4486413e-01
 -3.5476485e-01
 -1.7473565e+00
 -6.1051935e-02
  9.2470035e-02
  3.1962079e-01
 -2.2371215e-01
 -4.9120758e-02
 -3.2721925e-01
  4.2246994e-01
 -1.3441533e-01
 -1.4965847e-01
  1.1124508e+00
 -1.7243218e-01
  7.9112607e-01
 -7.4365455e-01
 -3.0972514e-01
  5.1126345e-03
  5.4203063e-01
  5.1940125e-01
  1.4184637e-01
 -5.3658718e-01
  5.1013750e-01
 -2.5507754e-01
  4.1717213e-01
 -5.3982449e-01
 -7.8948788e-02
  2.8980616e-02
 -2.9391345e-01
 -4.3145356e+00
  1.0972356e-01
 -1.4428829e+00
 -5.0881124e-01
  9.9676645e-01
 -2.3638396e+00
  4.6554866e+00
  4.7766465e-01
  2.6963192e-01
 -1.3599130e+00
  1.9437790e+00
 -1.0298074e+00
  1.0111749e+00
  1.6665865e-01
  1.5285903e-01
  1.8715885e+00
 -3.2533211e-01
  7.6513982e-01
 -1.8468028e-01
 -1.5734898e+00
 -1.9375181e+00
  3.3277479e-01
  2.0508871e+00
  1.9436090e+00
 -1.2669959e+00
 -1.0667553e+00
  7.3443979e-01
  8.7257540e-01
  1.9194455e-01
  4.7501661e-02
  4.5397282e-01
 -9.3635634e-02
  3.3657253e-01
  2.7373043e-01
  5.5032951e-01
 -3.4169748e-01
  2.0273058e+00
 -4.6474639e-01
 -6.7096817e-01
 -2.2804032e-01
 -1.8370502e-02
  8.7947488e-02
  6.2424432e-02
 -1.2150812e-02
  8.3502866e-02
 -6.3366157e-01
  4.5766610e-01
  7.7233121e-02
  1.1026702e+00
 -5.6195116e-01
 -2.1275100e-01
 -1.3964745e-01
 -3.7468410e-01
 -3.5889420e-01
  2.6233780e-01
 -4.3798113e-01
 -1.5383217e-01
 -1.0431506e-01
 -1.0225160e+00
 -7.7399874e-01
  4.6258736e+00
 -9.2271823e-01
  2.0153578e-02
 -2.8772492e+00
 -3.1444034e-01
  4.3642527e-01
  2.4798672e-01
 -2.8245572e-02
  2.8186730e-01
 -3.4211361e-01
 -4.2366376e+00
 -2.4168600e-01
  4.2112786e-01
 -2.3408544e+00
 -7.0328736e-01
  2.8484240e+00
 -7.7348447e-01
  1.4249223e-01
  4.6642344e-02
  5.4394078e-01
 -5.2119660e+00
  7.0420289e-01
 -2.7280444e-01
 -3.4526050e-01
  6.3570791e-01
 -4.9776088e-02
  8.3992882e-03
 -9.1779806e-02
  4.6257761e-01
  1.0297502e+00
  1.2626240e+00
 -4.1331324e-01
  8.1177604e-01
  1.3464037e-01
  6.4788347e-01
 -7.5290687e-02
 -4.0741104e-01
 -4.3259442e-02
 -1.9244561e-01
  3.2913551e-01
 -4.2027816e-02
 -3.6291847e-01
  2.3824883e-01
 -3.0974552e-01
 -8.8626407e-02
 -7.0100611e-01
 -1.1934644e-01
 -6.1026514e-01
 -2.0567641e+00
 -1.2972007e+00
  4.8348293e-01
 -5.0335755e+00
  3.7577200e+00
 -5.0176406e-01
 -8.0343252e-01
 -2.1882151e-01
 -1.0951720e+00
  6.7519015e-01
 -3.7082592e-01
  2.1833613e+00
 -1.6545916e-01
 -1.3039578e+00
  2.1857688e+00
 -1.5432715e+00
  2.8826904e-01
 -2.0723778e-01
 -2.2688057e-01
  1.9777070e+00
 -1.7258095e+00
  1.4567300e+00
 -8.6852348e-01
  6.8880129e-01
  2.1966451e-01
  7.5484715e-02
  7.8169030e-01
  5.5438954e-02
  4.2313114e-01
 -1.8888940e-01
  6.0272223e-01
 -8.8438109e-02
  4.3611547e-01
  1.4758742e-01
  3.8190044e-02
 -3.5741431e-01
 -1.0032550e-01
  5.3038943e-01
 -6.6428028e-02
 -1.4860536e+00
  2.5563014e-01
 -1.5385662e-01
 -2.2686751e-01
  1.1086527e-01
 -2.3891780e+00
 -4.4630033e-01
  2.0487316e-01
 -3.8869235e-01
  2.8672421e-01
 -1.5023609e-01
 -1.4414734e-01
 -4.8855853e-01
  3.6591566e-01
 -5.9812969e-01
 -1.5486811e-02
 -7.2335370e-02
 -1.7484686e-01
  2.1573393e-01
 -9.5963508e-01
  2.2899907e-02
  4.3347722e-01
  3.9204866e-01
  2.5072871e-02
 -3.0918288e-01
  4.2719198e-03
  6.0994202e-01
 -2.3160167e-01
 -3.5496566e-02
 -3.7816077e-02
 -5.6993794e-01
  2.5703261e+00
  2.8503909e+00
 -3.1766295e-01
  2.3747747e+00
 -1.9328041e-01
  7.7875423e-01
  1.0267479e+00
  2.0988937e-01
  2.7506864e-01
 -2.9011309e-01
  3.8973135e-01
  2.3721164e-01
  1.0483989e+00
  4.1515699e-01
  4.2058900e-01
 -2.3228119e-01
  1.0612820e+00
  4.4481060e-01
  6.7264622e-01
 -3.9366606e-01
 -4.6187963e-02
 -1.8886440e-01
 -8.6832285e-01
  3.5180816e-01
 -1.0713109e-01
 -4.0999007e-01
  1.3903667e+00
 -3.2846895e-01
  9.0987518e-02
  6.6966288e-02
 -7.0504062e-02
  7.4036352e-02
  9.7504862e-02
 -3.9792198e-01
 -2.3019476e-01
 -1.1738762e+00
 -1.3844616e+00
  2.9303358e+00
  2.4028876e+00
 -9.2060708e-02
  5.5526739e-01
 -1.4050623e+00
 -4.4862285e-02
  3.6800432e-01
 -1.1305140e+00
 -4.0062338e-01
 -4.1826352e-01
 -8.8466525e-01
  3.6063397e+00
 -4.1906297e-01
  4.3336493e-01
 -3.1904087e+00
 -3.5849807e-01
  3.9802796e-01
 -7.2457546e-01
 -1.6168889e-01
 -2.2833312e-01
 -4.0660402e-01
 -1.0114485e-01
  4.1037399e-01
  1.0474794e-01
 -6.3106412e-01
  4.3774047e-01
 -4.0636614e-01
  4.6126288e-01
  3.4863609e-01
 -7.3439308e-02
  1.1915708e+00
 -7.3232800e-02
 -5.2531314e-01
  6.0239047e-01
  3.0296415e-01
  1.3466898e+00
  3.1073481e-01
 -4.1177180e-02
  7.1269673e-01
  1.1981906e+00
 -8.3042598e-01
 -1.6583903e-01
 -1.7093370e+00
  1.4036313e+00
 -2.4089475e+00
  8.6805075e-01
  1.5793351e+00
  1.1886644e+00
  2.2589168e-01
 -1.6212858e+00
 -9.0830934e-01
  1.4085236e+00
  1.1743438e+00
  7.8019850e-02
 -1.9439974e-01
  4.3199310e-01
  9.0876025e-01
 -4.8079160e-01
 -3.9703378e-01
  4.5491520e-01
  5.3693199e-01
  7.2967954e-02
  5.8378536e-01
  5.0564903e-01
  1.3332898e-02
  2.0083930e-01
  7.4955039e-02
 -4.0861278e+00
  3.3365640e-01
  5.4535575e+00
 -5.5449595e+00
  2.7861762e+00
  1.9842559e+00
 -5.9930074e-01
  3.7793593e+00
  1.9213538e-01
  7.3609924e-01
  1.3989322e+00
 -9.3646616e-02
  2.6682286e+00
 -2.4769756e-01
  7.6242578e-01
  3.8978624e-01
 -1.0480568e+00
  2.3892114e+00
  1.4675729e+00
 -1.2926621e+00
  2.1069043e+00
  2.7625173e-01
  3.1457615e+00
 -5.5794054e-01
  1.2381215e+00
 -1.9034110e-01
 -1.6557932e+00
  6.3215953e-01
  5.8207585e-04
 -3.8563058e-01
 -1.8167658e-01
 -1.4596835e-01
  6.1993468e-01
 -6.4243221e-01
 -2.3680040e-01
  6.5806377e-01
  4.3375099e-01
  3.8781533e-01
  3.5921633e-01
  3.3112917e-02
 -5.7412553e-01
 -6.1775763e-02
 -1.1560779e-01
 -2.8656322e-01
  3.4239233e-01
  3.3529878e-01
 -2.2117946e-01
 -5.3198290e-01
 -1.4642033e-01
  2.1081777e-01
  9.0665482e-02
  2.8373191e+00
  2.1067597e-02
 -3.4662549e+00
 -1.8598460e-01
  6.3023424e-01
  4.3144974e-01
 -3.0729961e-02
  2.6109651e-01
 -7.0717089e-02
 -1.1752558e-01
 -1.7129403e-01
 -1.5574236e-01
 -1.4065076e-01
 -6.3704766e-02
 -1.1257719e-01
 -3.8815222e+00
 -5.9457980e-02
  2.8290986e-03
  3.3640838e-01
 -3.5292759e+00
 -5.8424644e-02
  6.7232496e-01
 -1.7648442e-01
 -9.0714055e-01
  1.8515347e-01
 -2.3082206e-01
 -1.5027459e-01
  1.0911866e+00
 -3.4787422e-01
  1.4543370e+00
 -6.4414388e-01
  4.2639804e-01
  5.7042724e-01
  1.8259312e-01
 -3.9491987e+00
 -1.9361264e-01
 -5.8828980e-02
  2.5364049e-02
 -3.2292008e-01
  2.0514931e-01
  3.4593889e-03
 -3.5904220e-01
  1.4713760e-01
 -7.7903695e-02
  4.8439124e-01
 -3.3650696e-01
 -8.2753086e-01
 -2.3390178e-01
  8.9677349e-02
 -1.0972931e-01
  1.0809936e-01
 -2.3407593e-01
 -3.7062589e-02
 -2.3128688e-01
 -2.5680461e+00
  3.1577063e+00
 -1.0391482e+00
 -1.5069737e-01
 -8.7944639e-01
  2.8304172e-01
 -9.0448290e-01
  3.5159044e-02
 -6.3663685e-01
 -4.9511939e-01
  1.1736583e+00
  2.5660651e+00
  1.1755376e+00
  1.4233860e-01
 -9.7057939e-01
  5.9736121e-01
  1.3129960e-01
  1.6269215e+00
  2.8193361e-01
 -5.4077250e-01
 -6.5224946e-01
 -1.8405510e-01
  3.4557693e+00
 -2.7201846e-01
  1.6393752e-01
 -6.6510357e-02
  2.8556314e-01
  6.8606132e-01
 -3.2530454e-01
 -1.0650499e-01
  4.5160082e-01
 -1.4662496e-02
 -5.6262497e-02
  1.1013987e-01
 -1.4802779e-01
 -3.7882161e+00
  4.1871409e+00
 -1.0427217e+00
  9.3105865e-01
  3.4556615e+00
 -1.1282938e+00
 -8.9174533e-01
 -7.7807426e-01
  7.3098445e-01
 -6.1948407e-01
  1.3084336e-01
 -1.0304886e+00
  4.5483786e-01
 -2.0307457e-01
  1.0728744e-01
  3.1149969e-01
 -6.7352861e-01
 -1.4997413e+00
  4.6198583e-01
 -5.9186578e-02
 -1.0382645e+00
 -7.8462988e-01
 -2.1562357e+00
 -1.3496178e+00
  1.8613247e+00
  1.1224548e-01
 -1.8404287e+00
 -2.6387182e-01
 -3.3248195e-01
  1.9500988e-02
 -2.4272324e-01
  1.9528340e-01
  6.8592805e-01
 -3.2333353e-01
  6.7318149e+00
  3.3626324e-01
 -1.8443997e-01
 -4.9969801e-03
  5.7794547e-01
  1.9415374e-01
 -2.9410017e-01
 -2.7265576e-01
 -3.6903465e-01
  2.6272687e-01
 -2.8607148e-01
 -8.8749439e-02
 -4.1327739e-01
 -3.0494529e-01
 -7.4360654e-02
 -1.6966833e-01
 -1.2832909e+00
 -1.3194904e+00
 -3.4938853e-02
  4.7573593e-01
 -1.7688569e-01
 -9.5126823e-02
  8.6636327e-02
 -2.0447576e-01
  9.3752289e-01
 -5.2071321e-01
 -1.4220700e-01
  9.3354493e-02
 -1.6672730e-01
 -3.4600649e-02
  4.1152924e-01
 -7.5055748e-01
 -4.2924842e-01
 -2.2210577e+00
  3.8547567e-01
 -2.0052882e-01
  1.2432451e+00
  7.1961182e-01
  1.3202705e+00
 -6.5590531e-01
  2.9637542e+00
 -4.0566757e-02
  2.7337685e-01
 -3.4638852e-01
  2.3315115e-02
  2.7065814e-02
  3.0253780e+00
  2.6912472e-01
  4.9244607e-04
 -1.4091223e-02
 -2.0744359e-01
  1.5395015e-01
 -9.7657990e-01
  1.6498413e+00
 -1.6956730e-01
  4.0873858e-01
  3.2900503e-01
 -3.9733270e-01
 -6.9738425e-02
 -5.5175662e-01
  8.3564663e-01
  1.6501144e-01
 -5.4670441e-01
 -3.6658324e-02
 -2.2802298e+00
  3.7252179e-01
 -2.7492395e-01
 -2.9458669e-01
  2.5639760e-01
 -5.9353828e-01
 -2.1102886e-01
 -1.8293902e+00
  1.9501559e-01
  2.2973328e+00
  5.9666790e-02
 -1.6881019e-01
  1.0642327e+00
 -7.4575408e-03
 -1.0685004e+00
  3.2628456e-01
 -6.5269047e-01
 -9.8036712e-01
 -1.0737283e+00
 -4.3779382e-01
 -1.7130378e+00
 -4.4645733e-01
  6.6557527e-01
 -7.7941281e-01
  1.1638831e+00
 -1.8338726e+00
 -7.7542692e-01
  3.3645957e+00
 -7.9533911e-01
  5.2917800e+00
 -6.2731636e-01
 -1.6744357e+00
  7.7841043e-01
 -1.5159549e+00
  6.2902188e-01
 -2.0029522e-02
 -4.0515310e-01
 -9.4643816e-02
  3.2229608e-01
 -8.4541202e-02
 -2.3980827e+00
  2.8625166e-01
 -1.3480976e-01
  1.2584926e-01
 -4.5254064e-01
 -1.4163154e+00
 -5.8589303e-01
 -2.5562492e-01
  4.7026169e-01
 -2.6037073e-01
 -1.8647893e-01
  1.8462792e-01
 -8.2573019e-02
  1.0290435e-01
  5.4379952e-01
  2.4315062e-01
 -6.6972405e-01
 -1.2177234e-01
 -1.0803024e-01
 -1.3844712e-01
  1.3789707e+00
 -2.3871890e-01
 -2.5992560e-01
  1.6169305e-01
  2.3234186e-01
  5.3719912e-02
 -4.9214992e-03
  6.5655500e-02
  3.4862190e-01
 -7.2984642e-01
  2.7865100e-01
  1.1270854e+00
 -5.2151918e-01
  7.9350173e-02
 -1.2634930e-01
  7.4878834e-02
  7.4368708e-02
 -3.3890478e-02
 -2.2353378e-01
  2.8599358e+00
 -2.8891063e+00
  2.7169043e-01
 -1.0210340e-01
 -1.1235409e-02
  1.5726039e+00
 -1.2491107e+00
  9.6471465e-01
  5.0959200e-01
  1.2834702e+00
 -2.0409999e-02
 -4.2194777e+00
  2.1015882e+00
 -1.2550840e-01
  3.1311457e+00
  2.6663373e+00
  1.9479398e-01
  1.7286260e+00
 -3.8122281e-01
 -5.5761385e-01
  1.7780300e+00
  2.4687197e+00
  5.6083375e-01
  2.4940151e-01
 -4.6924019e-01
  5.2394141e-03
  3.6810839e-01
  4.9533051e-01
  2.0906073e-01
  1.1878023e-01
  1.5861768e-01
 -2.3663019e-01
  4.1355208e-01
  2.6266310e-01
 -2.1433139e+00
 -2.8571492e-01
 -2.0121324e+00
  5.4575706e-01
  1.6522661e-01
 -2.9994616e-01
 -3.0327496e-01
  2.1356669e-01
 -3.8720551e-01
  5.1005864e-01
 -4.6685660e-01
 -1.3318889e-01
 -1.0801625e+00
  1.9933105e-01
 -8.7977052e-02
  2.3185661e-01
 -8.2488048e-01
 -1.6564883e-01
 -5.7979103e-02
 -6.5668201e-01
 -5.1530194e-02
  2.8389800e-01
 -1.7922625e-01
 -8.9187503e-01
 -4.0575680e-01
 -5.0739274e+00
 -4.2156035e-01
 -2.0351057e-01
  1.6673571e-01
 -9.1074538e-01
  3.6874026e-01
 -6.8030339e-01
  3.6099151e-01
 -2.0853424e+00
 -4.6772313e-01
  4.1642771e+00
  2.3514457e+00
  4.6695366e+00
  1.0414809e+00
 -1.6546158e+00
 -1.6486466e-01
  4.2153418e-01
  7.3460269e-01
 -6.1763752e-01
 -1.1488630e+00
  8.6701936e-01
  2.0192242e+00
  3.1636858e+00
  9.0626645e-01
 -1.8919051e+00
  1.1268919e+00
  3.2319260e+00
  1.2590135e+00
  7.0163947e-01
 -1.1211162e-01
 -2.4634603e-01
  3.7186959e+00
  1.9619483e+00
 -6.1571980e-01
  4.8647535e-01
  4.8354536e-02
  1.0213021e+00
 -2.4557407e-01
 -8.5066363e-02
  2.8037143e-01
 -8.5049465e-02
 -3.1501320e-01
  3.2407392e-02
  1.2548507e+00
 -7.6330245e-02
 -3.5163006e-01
  1.7402592e-01
  4.5999867e-01
 -8.1168479e-01
  4.7451083e-02
  1.7097733e+00
 -3.6064166e-01
  5.9505641e-01
 -6.5276980e-01
 -1.8119670e-01
 -3.8601172e-01
 -4.0556741e-01
  5.6766164e-01
  2.6193428e-01
 -1.0963925e-01
  3.7768063e-01
  1.1727937e-01
  1.9990759e-01
 -1.5570748e-01
  2.6377869e-01
  3.1775990e-01
  4.8544928e-01
 -4.6020869e-02
  1.6470298e-01
  4.3698713e-01
 -3.2889344e-02
  2.7190560e-01
  5.6850016e-01
 -1.5967312e-01
 -2.5480384e-01
 -9.6197560e-02
 -5.4289943e-01
  2.6068270e-01
 -3.1729305e-01
  9.5420110e-01
  1.4842330e+00
 -1.2826171e+00
  6.6599822e-01
  3.7717855e+00
  6.6703618e-01
  5.8103210e-01
 -1.2390525e+00
  8.3394891e-01
  5.9779692e-01
 -7.4522245e-01
 -2.3436229e-01
  1.5753028e+00
 -1.0749570e+00
 -5.5476600e-01
  2.0004068e-01
 -9.3879700e-01
  1.2663244e+00
 -1.9284122e+00
 -1.8663274e+00
  2.9662075e+00
 -2.9936516e-01
 -1.8653347e+00
  1.8412623e-01
  2.2813537e+00
  1.7736436e-01
 -2.3638056e-01
  5.5292994e-02
 -7.1939582e-01
 -1.0288572e-01
 -3.4400141e-01
 -4.2908445e-02
  1.1887709e+00
  4.0962869e-01
 -5.3694183e-01
  7.5286138e-01
 -1.5473035e-01
 -1.7196476e-02
 -1.3373809e+00
  8.7624639e-01
  1.7745472e-01
 -1.4062430e+00
 -9.2645460e-01
  2.7344477e-01
 -3.6373818e-01
  1.2285671e+00
 -3.5949299e-01
 -3.4398928e-01
 -1.7952612e-02
 -3.6690319e-01
  2.8289917e-01
 -1.2908765e+00
  3.3796418e-01
  5.5059367e-01
  6.1856157e-01
  7.4683040e-01
  8.3263987e-01
  2.6212087e-01
  8.4183866e-01
  6.8266004e-01
  2.1918413e-01
  4.9589151e-01
  2.2678989e-01
  1.7046195e-01
  1.1237329e-01
  2.6965851e-01
  6.8746483e-01
 -6.0879087e-01
  5.3332728e-01
 -6.8456717e-02
 -2.0665182e-02
  1.5414529e+00
  1.3220134e-01
  9.3686860e-03
 -7.6698816e-01
  2.4340044e-01
 -1.0423514e-01
 -7.0389330e-01
  9.3275256e-02
 -2.0448612e-01
 -6.7659640e-01
 -1.9179381e-02
 -1.8257634e-01
 -2.2670338e-01
 -1.3542283e-01
 -1.1768473e-01
  3.9751408e-01
  3.2051575e-01
  7.3100066e-01
  2.8459561e-01
 -9.3009196e-02
  1.2803888e+00
  4.0487323e-02
 -3.0000914e-02
 -3.0864146e-01
  1.6494296e-01
  1.6435669e-01
 -3.1600654e-01
 -1.1073917e-01
 -1.8437369e-02
  9.4889246e-02
 -5.9442550e-02
 -7.8650579e-02
  1.5238896e-01
 -2.6896584e-01
  1.3104872e+00
  3.9806750e+00
 -1.9207445e+00
 -1.2474734e-02
 -3.2710728e-01
  4.5838812e-01
 -9.1935284e-02
 -7.8240913e-01
  6.2656265e-01
 -6.0940575e-02
  8.2855493e-01
 -7.2874904e-01
 -4.7129178e-01
  4.5667475e-01
 -3.2197642e-01
 -5.0583261e-01
 -2.3954196e-01
 -5.5076945e-01
 -7.0161164e-01
 -8.4180635e-01
 -1.8425584e+00
  6.0402155e-01
  2.4215999e+00
  3.3524016e-01
  7.5089759e-01
  1.9729674e-01
  4.5198128e-02
  2.5226958e+00
 -1.7908257e-01
 -2.8565282e-01
 -7.9970136e-02
  1.5745097e+00
  1.7627586e-02
  4.0690044e-01
  3.0948657e-01
 -1.6649626e+00
  2.1200993e+00
 -3.8481441e+00
  1.9242392e+00
  1.4396928e-01
 -3.3420274e-01
 -4.9595585e-01
 -1.7204695e+00
  7.7443177e-01
 -9.5015460e-01
  1.0387822e+00
  2.5677484e-01
 -1.9737546e-01
  3.2327366e-01
 -5.1333106e-01
 -5.3849840e-01
 -2.9503354e-01
  2.1002285e+00
 -6.1556570e-02
 -3.9205581e-01
 -3.3903986e-01
  1.4075892e+00
  3.3483369e+00
 -3.8045493e-01
 -3.0647767e-01
  2.5145426e-01
 -2.7385521e-01
 -7.5845474e-01
 -3.5470929e+00
 -3.7926991e+00
  5.8901733e-01
 -1.7290884e-01
  7.7965695e-01
 -3.0228809e-01
 -5.9338617e-01
 -1.3386095e-01
 -1.6581006e-01
 -1.0865549e+00
 -1.8140523e-01
 -3.3154112e-01
  2.2088218e-02
  1.0278932e-01
  2.5508097e-01
  9.9292392e-01
 -7.1904443e-02
 -3.8432717e-01
  4.2456058e-01
  1.1779825e-01
 -8.7259300e-02
 -2.5955714e-02
 -4.7590099e-02
  3.6622396e-01
 -2.3422979e-01
 -5.5241126e-01
 -1.7761105e-01
 -3.5134822e-03
 -3.9195544e-01
 -3.3397701e-01
 -9.6553668e-02
 -4.1422009e-01
 -2.7026132e-02
 -3.1407106e-01
 -1.0504564e-01
 -1.6894467e-01
  8.9827538e-02
 -2.2468017e-01
 -3.2220265e-01
  1.0921332e+00
  4.2245549e-01
 -1.8244082e-01
 -7.1158391e-01
  1.0026324e+00
 -4.9058476e-01
  3.1443489e-01
  2.2896281e-01
  2.8450692e-01
 -7.2345442e-01
 -1.0828783e-01
 -2.7361339e-01
 -8.3980662e-01
  4.9739423e-01
 -8.2672071e-01
 -2.0839827e-01
 -4.4582322e-01
 -7.5480562e-01
 -6.0616440e-01
 -8.4472589e-02
  6.2442794e-02
 -1.1239162e-01
  2.1327364e-01
  3.1081074e-01
  1.5278940e-01
 -5.5818284e-01
 -1.8988027e-01
 -3.9589390e-01
 -3.2641392e-02
 -2.7581432e-01
 -1.0948100e-01
  2.6816458e-01
  1.1697581e-01
 -5.4566008e-01
  4.6231550e-01
  2.5429058e-01
 -7.1753360e-02
  4.0915251e-01
 -5.7373780e-01
  1.7297699e+00
  2.4850687e-01
  2.4800303e+00
 -1.3550248e+00
 -6.6758317e-01
 -2.0487668e-01
  2.3922148e-01
  2.1640563e-01
  5.1747467e-03
 -3.7833851e-02
 -1.0048405e-02
  1.1600548e-01
 -8.0227666e-02
 -2.1921356e-01
 -3.9648019e-02
  3.5938549e-01
 -9.6791470e-01
  5.0486434e-02
  8.0304098e-01
 -3.6547166e-01
 -5.3844547e-01
 -4.2190063e-01
  3.2708040e-01
 -4.3478820e-01
 -3.8119793e-01
  2.1488300e-01
  4.9436238e-01
  2.9177370e+00
 -1.4375340e+00
  5.5972594e-01
  6.8689534e-04
 -1.8901443e-02
 -2.5079319e-01
  3.3385250e-01
 -3.1860855e-01
 -6.4932227e-02
 -1.7963791e-01
 -2.3380826e-01
  5.7326943e-01
 -2.9762968e-01
  4.4408411e-01
 -8.6698115e-02
  4.3673915e-01
 -3.1588450e-02
 -5.9573039e-02
  5.2079743e-01
  2.4688293e-01
 -5.3854790e-02
 -1.2646669e-01
 -2.6995480e-01
  3.2522467e-01
  1.5011256e-03
 -1.5489411e-01
 -3.9501792e-01
  3.6147168e-01
 -4.3484056e-01
  3.7271135e-02
 -3.1486330e+00
 -1.9997256e+00
  5.2697319e-01
  2.5779369e-01
  3.3158338e-01
 -3.4779555e-01
  1.4065355e-01
  2.5268803e+00
  5.9069319e+00
 -9.8844510e-01
  1.2332710e-01
 -2.1483876e-01
  1.2686611e+00
  5.6798732e-01
  3.4231033e+00
 -1.1150048e+00
  4.9171478e-01
  1.7084925e+00
  1.5281545e+00
  1.4793620e+00
  4.9883237e-01
  1.1091852e+00
  1.8554969e+00
 -9.7382469e-03
 -5.4301876e-01
  6.3062108e-01
 -7.1022309e-02
  9.0862161e-01
  5.8513469e-01
  9.7141045e-01
  2.5602612e+00
 -1.2244170e-01
  1.2236701e+00
  2.1277363e+00
  8.7088794e-01
  2.1546168e+00
  1.6828214e-01
  8.2776868e-01
 -7.1741325e-01
  4.0902779e-02
  8.7733895e-01
  4.0024227e-01
  1.8124439e-01
 -4.5244643e-01
  1.0704547e-01
  6.5471649e-02
  8.3026111e-01
 -1.6007352e+00
 -5.7935982e+00
  1.4549129e+00
  4.1946006e+00
 -3.0801201e+00
 -1.7035282e+00
  2.2307386e-01
 -4.1921582e+00
  5.9268242e-01
  4.6640900e-01
 -1.4818821e+00
  6.3234675e-01
 -1.6417937e+00
  7.9377323e-01
  2.6495638e-01
 -2.5220492e-01
  2.0850475e+00
 -8.3858258e-01
  1.6358100e+00
  1.4400667e-01
 -1.5555056e+00
  1.4367297e+00
  2.0817099e+00
 -2.2328830e+00
 -2.8347156e+00
  3.6989027e-01
 -1.0129238e-01
  2.5738609e+00
  1.9126374e-01
  8.9778411e-01
  1.6074972e-01
 -8.7499529e-02
 -4.9308467e-01
 -2.5932004e+00
 -1.1091896e-01
  1.9375998e-01
 -5.0606208e+00
 -6.4687252e-01
  1.1518186e+00
 -6.4082485e-01
 -4.7505972e-01
 -1.8024102e+00
  2.9686064e-01
 -3.8370892e-02
 -4.6289769e-01
 -2.7201509e-01
 -4.0947643e-01
  1.4472873e+00
 -5.5944371e-01
  4.0642959e-01
  1.8196882e-01
 -3.2153094e-01
 -2.0658869e-01
  6.7847645e-01
 -8.7464958e-01
  2.0102720e-01
 -5.3849685e-01
 -1.9053936e+00
  5.6349802e-01
 -5.2671832e-01
 -2.8387100e-01
 -1.6533598e+00
  4.8472735e-01
 -3.4152260e-01
 -1.8935931e-01
  1.7050823e+00
  4.0017575e-01
  4.5822695e-01
 -3.8212597e-01
 -2.2263786e-01
  1.6562327e+00
 -6.7798491e+00
  2.3004251e+00
  1.7622114e+00
 -3.3031330e+00
  1.5415300e+00
  3.2600340e-01
 -1.0699956e+00
  3.0442387e-01
  7.4179614e-01
 -2.0999631e-01
 -7.8168458e-01
 -6.7883313e-01
  4.4648416e-02
 -4.8220968e-01
  2.5828762e-03
 -6.0108536e-01
  6.2283474e-01
 -1.1843229e-01
  5.7056129e-01
 -4.6665229e-02
 -4.4183260e-01
  2.1962316e-01
  7.1553177e-01
  3.2060990e-01
  3.3984616e-02
 -3.8714832e-01
 -8.0414480e-01
 -2.9986635e-01
  3.1044343e-01
  1.8098810e-01
 -2.9365170e-01
  4.2819963e+00
  1.6662082e-02
  7.3561549e-01
 -4.8070908e-02
 -1.2676818e+00
  5.5563651e-02
 -1.8888423e-02
 -6.1106984e-02
  1.0210574e-01
  2.2158618e-01
 -8.5887378e-01
 -1.7314541e-01
 -1.8140590e-01
 -1.2832047e-02
 -8.2435541e-02
 -6.7689300e-01
 -7.6672897e-02
 -4.4070539e-01
  1.9698477e-01
  6.4141238e-01
 -4.5593759e-01
 -1.4392036e-01
  3.7662750e-01
  1.1527630e-01
  9.5263086e-02
  3.5136235e-01
  2.1832106e-01
 -2.9516342e-01
 -3.4173176e-02
  2.2157362e-01
  2.8207355e+00
  3.5869929e-01
  6.3953735e-02
 -2.0409210e-01
 -1.7379184e-01
 -2.3849443e-01
  3.4464747e-01
 -2.7569449e-01
 -5.5826873e-02
 -1.9527176e-01
  7.9226416e-01
  2.1867155e-01
  3.7717932e-01
 -6.1346418e-01
  1.4368315e-02
  4.6726358e-01
 -7.9622096e-01
  3.5971159e-01
 -4.0877593e-01
 -1.5031848e-02
 -3.8621557e-01
 -2.1928308e+00
  6.9332004e-02
 -1.2990688e-01
  4.0151662e-01
 -2.1899144e-01
  1.1351482e-01
  3.9759386e-02
 -2.4627800e-01
  5.9958464e-01
 -9.5775247e-02
  7.1350789e-01
  3.1580803e-01
  4.9692580e-01
  5.5520535e-01
 -9.0339285e-01
 -2.9131418e-01
 -5.1488352e-01
  1.8473604e-01
 -2.9781523e-01
 -1.5668884e-01
 -5.9556377e-01
  3.2916665e-01
 -7.9906590e-02
 -7.3008579e-01
  6.1140634e-02
  2.8385016e-01
 -3.3982411e-01
  1.4556411e-02
  2.8177336e-01
 -6.8786442e-02
  4.4308357e-02
  3.3395439e-02
  1.3770679e-01
  1.5564851e-01
 -2.0216370e-02
  1.4110510e-01
 -1.8018728e+00
  2.0118250e-02
  1.7508908e-01
  1.1649226e-01
  1.8147995e-01
 -2.0336264e-01
 -2.8838593e-01
 -5.0762426e-02
  4.1856930e-01
 -1.5155245e-02
  4.2026728e-01
  1.1446110e+00
  1.6695482e+00
 -6.6619116e-01
 -8.7450065e-02
 -3.4632492e-01
 -8.3121753e-01
 -4.6334320e-01
  2.6671481e-01
 -3.0819467e-01
  2.9822688e+00
 -1.0117540e+00
 -3.0993825e-01
  5.1067162e+00
 -4.6231542e+00
  5.7662678e+00
 -6.4997500e-01
  5.5983263e-01
  1.6740003e+00
 -6.7888200e-01
  2.1468669e-01
 -1.6475116e-01
  1.1196458e+00
 -1.4928142e+00
 -4.2887133e-01
 -2.4534476e-01
 -6.5172866e-02
 -8.1434888e-01
 -2.6560619e+00
 -1.6389976e+00
 -1.5567138e+00
 -1.9293721e+00
 -9.2991158e-02
 -4.6907287e+00
 -1.8766476e+00
 -6.1551321e-01
 -1.7031664e-01
 -1.3944477e-01
  1.7208071e-01
  1.3802665e-01
  2.9786369e-01
  1.0040073e+00
  2.5311559e-01
 -6.9286531e-01
  1.2483110e-01
  6.8991646e-02
  2.5696015e-01
  1.5619954e-01
 -2.2124946e-01
 -4.9495786e-01
 -8.1753887e-02
  1.4508888e-01
 -7.8056526e-01
  1.3790084e+00
 -4.6441731e-01
 -3.4760684e-02
 -1.0979700e+00
  9.7523592e-02
  4.3433496e-01
 -5.6731147e-03
 -4.4648075e-01
 -5.0130859e-02
 -3.2848772e-01
  9.4316550e-02
  1.1287355e-01
  5.6252426e-01
 -1.6898683e-01
  1.4764965e-01
 -1.2450163e-01
  2.2155599e-01
  2.8103292e-01
  3.3150053e+00
 -1.6912607e-02
 -1.7899257e+00
  4.4188020e-01
 -8.0383234e-02
  1.6623217e-01
 -1.2621841e-01
  7.8933936e-01
  8.4185056e-02
 -4.6943769e-01
  1.7388086e+00
  1.6774818e-01
  4.6280727e-02
 -1.9474696e+00
  1.6993329e-01
  1.7881217e+00
  1.8988405e+00
  4.6719104e-01
 -1.8939058e+00
  2.2410540e-01
 -1.8031846e+00
  5.1841474e-01
 -7.7141955e-02
 -6.0914993e-01
  7.0673931e-01
 -2.4347606e+00
  1.5487643e-01
 -3.7961173e-01
  4.5079154e-01
  2.9240781e-01
 -3.4754053e-01
 -1.5438168e+00
 -1.6451844e+00
 -2.9038560e-02
  1.2928363e+00
  2.6123548e-01
  1.5884557e-01
 -1.4376504e+00
 -1.4514589e-01
 -3.2019010e-01
 -1.9400634e-01
 -3.0407071e-01
  2.3111660e+00
 -3.1113249e-01
 -4.7261208e-01
  1.0310339e-01
  1.1729727e+00
 -7.4491453e-01
 -1.6289949e+00
  5.5772299e-01
 -3.1282644e+00
 -3.1911995e+00
  1.0249847e+00
  1.9476120e-01
 -2.4167660e-01
  1.6810681e-01
  2.0577928e-01
  2.4929221e+00
 -9.6315339e-02
 -2.1842435e-01
 -1.0849229e-01
  2.5638801e-01
 -8.2192123e-01
 -7.8281587e-01
  1.3761022e+00
  6.1804473e-01
  1.2030821e+00
  2.6793730e-01
  2.3667602e-01
 -1.5548879e+00
  1.3420036e+00
  4.1458359e-01
  7.3424703e-01
 -2.8101537e-01
 -7.1066779e-01
  9.2567176e-01
  2.0662382e+00
 -1.2893091e+00
  7.7387534e-02
  2.3704101e-01
 -2.9425256e+00
 -3.9895099e-01
  1.4229077e+00
  7.4388909e-01
 -2.1789963e+00
  4.3917224e-01
 -3.7034011e-01
 -1.0665588e+00
 -2.5170213e-01
 -1.5809061e-01
  3.4176141e-01
 -2.8995433e-01
  2.6278400e+00
  4.4316015e-01
  4.9126729e-01
  3.4710234e-01
 -3.2077289e-01
 -3.1482832e+00
 -7.7938884e-02
  2.5449571e-01
 -2.4939656e+00
 -9.4777636e-02
  3.6578369e-03
  2.6388437e-01
 -6.8402153e-01
 -2.1738963e-02
 -7.8943455e-01
 -1.9131573e+00
  4.6342415e-01
  3.1707001e-01
  4.7593364e-01
 -7.1089841e-02
 -3.3928782e-01
  1.6646614e-02
  1.9799709e-01
 -5.1332998e-01
  1.5793600e+00
 -2.5182772e-01
 -1.3286467e-01
  2.9389113e-01
 -5.9368737e-02
  2.3700520e-01
  2.0436855e-02
 -1.2950810e+00
  3.6385828e-01
  2.8607887e-01
  3.2449827e-01
  3.3500469e-01
  4.9432757e-01
  3.6948998e-03
 -9.1555886e-02
 -4.7843277e-01
 -5.7143605e-01
  2.4242744e-01
 -5.2753119e-03
  3.7158069e-01
 -3.9387441e-01
 -3.3455148e-01
 -2.1369930e-01
 -1.9363384e-01
  3.0657424e-02
  3.4823596e-01
  1.4161058e-02
  3.6603948e-01
 -6.5239662e-01
  7.8745455e-02
 -2.1111034e-01
  2.1102822e-01
  3.8698515e-01
 -1.1036745e-02
  3.5850847e+00
 -5.4270191e+00
  2.3309213e-01
 -2.1661437e+00
  2.0659559e+00
 -2.9141572e-01
  5.3535819e-01
  6.3137585e-01
 -1.2959701e+00
 -2.9798442e-01
  2.0657380e+00
 -4.4351703e-01
  2.3388815e+00
  9.4044483e-01
  1.7864691e-01
 -3.4553015e-01
 -1.0812942e-01
  3.6021886e+00
 -5.5222189e-01
  2.2988930e-01
 -1.0222458e-01
  6.0954189e-01
 -5.6093436e-01
 -1.2486655e+00
  8.6137187e-01
  1.9816121e-01
  3.5956970e-01
  3.4865525e-01
  3.1000374e-02
 -6.2405235e-01
 -1.1147521e+00
 -2.5938725e-01
 -7.6699466e-02
 -8.9063591e-01
  2.6901429e+00
  1.2613114e+00
  1.3486900e+00
 -1.2202401e-01
 -4.5933911e-01
  1.2895757e+00
  8.5312241e-01
 -3.9050648e-01
 -7.6688600e-01
 -2.4951920e-01
  5.4983842e-01
 -4.0880734e-01
  7.0379722e-01
  4.7266200e-01
 -3.3122507e-01
 -3.8494849e-01
  1.9262905e-01
 -2.0825954e-01
 -1.5883845e-01
  3.5599071e-01
 -6.6972178e-01
  3.0342925e-01
 -3.7245893e-01
  1.2511879e+00
  5.8826029e-01
  1.5526808e-02
 -6.3813239e-02
 -5.0608844e-01
  2.4956101e-01
 -1.2921213e-01
 -5.7551873e-01
  8.4678912e-01
 -7.6284274e-03
  3.6897722e-01
  9.9145062e-02
  4.1541860e-02
  1.1530038e+00
 -9.6461177e-02
 -1.6289631e-01
  6.1493045e-01
  1.2744589e-01
 -2.6646668e-01
  4.5834318e-02
  4.6225026e-02
 -5.2266157e-01
 -1.3789439e-01
  4.8098050e-02
 -6.8723693e-02
  5.8487479e-02
  4.9421856e-01
  1.4351407e-01
 -1.7914556e-01
  8.6567923e-02
 -4.1388237e-01
 -2.2465006e-01
 -1.5955318e+00
 -1.5854561e-01
  1.2635873e-01
 -9.7125553e-02
 -9.7005740e-02
  3.8113311e-01
 -4.2210661e-02
 -2.8590652e-01
  4.2589834e-01
  4.1427050e-02
 -4.9328151e-01
 -1.2849119e-01
 -5.9334290e-01
  1.1281876e-01
 -3.5163879e-01
  1.2612769e-01
  4.7581178e-01
  7.7061659e-01
 -8.9272633e-02
  1.3795906e+00
 -3.2372206e-01
 -2.2440898e-01
  2.5215083e-01
 -4.2191222e-03
 -1.9874665e-01
 -1.4911911e+00
 -1.2582719e-01
 -1.9551469e-01
  5.6819845e-02
 -1.4318044e-01
 -4.6546152e-01
  5.7477200e-01
 -7.8274328e-01
  3.3646074e-01
  1.0883080e+00
  1.1695064e-01
 -4.5546982e-02
  8.7484717e-03
  1.1414177e-01
  3.2917216e-01
  8.7518871e-02
  1.2704267e-01
 -2.9779574e-01
  4.0861660e-01
 -3.6707976e-01
  4.7505040e-02
  7.6347418e-02
 -2.6998827e-01
  5.1801544e-01
 -7.5018132e-01
 -3.4128055e-02
  8.4107257e-02
 -1.1271369e+00
 -2.9607034e+00
 -1.0530325e+00
 -8.5989279e-01
 -3.6842623e-01
  2.8124788e-01
  1.0513585e+00
 -2.2448149e-01
  7.4128611e-03
 -2.0289636e-01
  1.0992228e+00
  2.0673904e+00
 -5.5488157e-01
  9.3143588e-01
  1.7311022e-01
  5.5697423e-01
 -3.7836707e-01
 -6.3250393e-01
  1.7032903e-01
 -2.5829759e+00
  7.8230774e-01
  1.3811826e+00
 -1.3592429e+00
 -2.9618070e-01
  7.2839946e-01
 -4.5880221e-02
 -2.0078495e-01
  4.4369727e-01
  1.6987716e+00
 -1.6315810e-01
  2.6672480e-01
  1.7459658e-01
 -3.7659806e-01
  9.9322572e-02
 -3.9906603e-01
  1.1721534e+00
  6.9404557e-02
 -1.6883975e-01
 -3.0895731e-01
  1.6973691e-01
 -5.4899329e-01
 -1.3321991e-01
 -3.3224988e-01
  1.0275202e+00
  1.3664857e-01
 -1.3319431e-01
  1.3970807e+00
  2.4247847e-01
  3.0971923e-01
 -6.1942154e-01
  9.2181921e-02
  3.8099810e-01
  2.8354478e+00
  4.0684921e-01
 -2.9789934e-01
  6.6930556e-01
  4.4574580e-01
  9.4476634e-01
 -3.0211598e-01
  8.0337441e-01
 -3.7244148e+00
  5.8124793e-01
 -1.0071595e-01
  5.2038491e-01
  9.7802305e-01
 -2.3474960e-01
  1.2374691e-01
 -2.2780731e-01
  3.6930800e-03
 -2.2072368e+00
 -9.5163651e-02
  4.6518397e-01
  2.9233089e-01
 -2.6242962e+00
  3.1024328e-01
  2.9346368e-01
  1.4024989e-01
 -3.7541664e-01
  1.7831485e-01
  4.2847022e-01
  1.5501282e-01
  1.2904687e-01
 -2.9014048e-01
  3.9101958e-01
 -2.0288964e-01
 -6.7893106e-01
 -1.9191778e-01
  6.2794074e-02
 -5.4945296e-01
  1.7821623e-01
  4.4088984e-01
 -9.3884386e-02
  4.4764149e-01
  2.3202653e-01
  1.2844549e-01
 -7.3200897e-03
 -1.0987033e-01
  5.3974795e-01
 -3.5335115e-01
 -4.4854501e-01
 -6.9773450e-02
 -1.1466874e+00
 -4.5572755e-01
 -7.8579223e-01
  3.3262596e-01
 -8.2702374e-01
  2.0150506e+00
  1.3156010e+00
  3.2540402e+00
  3.3593315e-01
  9.4197296e-02
 -4.9114902e-02
  1.0722893e-01
  2.7285045e-02
 -3.2258660e-01
 -2.5304604e-01
  6.1625838e-01
  6.2814671e-01
 -5.0648284e-01
 -1.0018537e-01
  7.6579070e-01
 -1.3400677e+00
  4.8589838e-01
 -2.5497702e-01
 -1.3491715e+00
  1.3047446e+00
 -5.4475093e-01
 -3.4897190e-01
  2.2915484e-01
 -4.2497420e+00
 -2.0088345e-02
 -1.3007948e-01
  3.6952531e-01
  2.8938559e-01
  7.3015377e-02
  1.7571639e-01
  3.1962159e-01
 -3.6367467e-01
 -1.5120484e+00
  4.3377739e-01
  1.3929912e+00
  5.4010457e-01
 -2.6219448e-01
 -3.7645133e+00
 -1.5910316e-01
 -4.9288463e-02
 -1.8799730e-01
  8.1952554e-01
 -2.1301705e-01
 -4.6384585e-01
  6.2316190e-02
 -1.6293614e-01
  2.1152613e-01
  1.1257252e-01
  2.4155754e-01
 -3.7580809e-01
 -3.1838998e-01
  5.6924338e+00
 -1.5481006e-01
 -7.3360782e+00
  5.7989150e-01
  4.5588195e-01
 -3.2808644e-01
  5.1069325e-01
  4.3724859e-01
 -6.6480136e-01
 -2.1702074e-01
 -6.0309861e-03
  1.1661403e-01
 -1.4825955e-01
 -6.2592220e-01
  4.4288754e-02
 -1.3824385e-01
  4.1585010e-01
 -2.8566056e-01
  9.4367397e-01
 -8.2377471e-02
 -3.1634688e-01
  2.4081039e-01
 -3.8947010e-01
 -3.1061912e-01
 -9.5261775e-02
  1.3847819e-01
 -1.1010361e-01
 -1.2536061e-01
 -4.4843456e-01
  3.4005105e-01
  3.4512419e-02
  3.5667598e-01
  9.2410511e-01
  1.6599053e-01
 -1.1847265e-01
 -3.3696316e-02
  4.5036671e-01
 -1.8628806e-01
  5.0547588e-01
 -4.0335611e-02
 -4.5450326e-02
 -5.4799523e-03
  4.5365825e-01
 -5.5970430e-02
  4.6172804e-01
  2.1862979e-01
 -2.6640508e+00
  2.1368358e-01
  1.3507731e-01
 -1.4226989e-01
  5.7490587e-01
 -3.8953230e-02
  5.8079924e-02
  2.7326553e+00
  1.2478303e+00
  3.8241444e+00
  1.7908184e-01
 -2.7873066e-01
 -1.9221103e-02
 -2.1468881e-01
 -3.1139913e-01
  2.0964870e-01
  2.5197402e-01
 -1.6396731e-01
  1.4832702e-01
  1.2927818e-01
 -8.7981828e-02
  3.1402630e-01
  4.0481529e-01
 -9.8381871e-03
  4.0011695e-01
  3.3530068e-01
  4.7315571e-01
  3.9692327e-01
 -9.0050298e-01
 -1.5260535e+00
  4.1481292e-01
  1.6257953e-02
  1.5528150e-01
  1.0557331e-01
 -2.6878158e-02
  3.0541947e-01
  2.4760352e-01
 -1.4399281e-01
  2.3895600e+00
 -2.0183209e-01
  7.6236829e-02
 -1.7125480e-01
 -2.8844473e+00
  4.2120752e-01
 -2.1423708e-01
 -1.8643382e+00
  1.0292016e-02
 -7.8517601e-02
  1.5702040e+00
  7.3316425e-01
 -3.2377633e-01
  1.4798711e-01
  1.5667337e+00
  4.1781920e-03
  2.9826736e-01
 -5.9856939e-01
 -3.9107981e-01
 -1.0466792e-01
  1.1748309e-01
 -3.2661632e-01
  4.9859098e-01
  3.7894487e-01
  1.3172380e+00
  1.3154244e-01
  2.6765159e-01
  8.1703499e-02
  3.7389529e-01
  4.3168192e+00
  6.1882186e-01
  3.1801346e-01
  5.5493239e-02
 -8.3982624e-02
 -2.8772902e-01
 -2.7639544e-01
  7.9788432e-02
 -6.4044166e-01
 -2.5854936e+00
  4.2178023e-01
 -2.4741161e+00
  4.3097490e-01
 -1.7451042e-01
  1.8191727e+00
 -3.5049703e-02
  1.8273467e+00
  3.5451606e-01
  7.5499749e-01
 -2.9524956e+00
 -1.6656572e+00
  3.0152385e+00
 -3.0878934e-01
  2.8250864e+00
  2.4396167e+00
  4.7592255e-01
  5.3259003e-01
 -1.4207430e+00
 -2.1882954e-01
  4.7324032e-02
 -1.8313328e+00
 -3.3643255e+00
 -4.0839875e-01
 -3.0955670e+00
 -7.2443831e-01
 -2.5608339e+00
  7.9867635e-03
  1.0867127e+00
 -3.1956954e+00
 -2.2158771e+00
 -3.6185369e-02
 -7.4249870e-01
  1.1675654e-01
 -2.7071981e+00
  3.0563536e+00
  3.7097648e-02
 -3.3101764e+00
 -3.8942919e+00
  1.4060297e+00
 -3.3929136e-02
  2.9578705e+00
 -7.5731272e-01
 -2.7855456e+00
  3.9154136e-01
 -2.5320249e+00
 -1.2968626e+00
 -3.0793908e+00
  2.7959595e+00
  9.5218167e-02
 -1.2692012e+00
  3.5571420e+00
  1.3319478e+00
 -2.4421461e+00
  2.7180815e+00
  1.0926553e+00
  5.9289032e-01
  7.9317617e-01
  1.7379445e-01
 -2.6735075e+00
 -3.0449879e+00
 -2.1463897e+00
 -1.0502704e+00
  2.8594389e+00
  1.8022997e+00
  1.8274451e+00
  1.7292060e+00
  2.0632560e+00
  3.8734326e-01
  6.0866427e-01
 -2.5928190e+00
  2.9583201e+00
 -5.9704596e-01
  1.8611294e+00
 -2.8520558e+00
  7.2281486e-01
  3.1300986e+00
  2.4616675e+00
  3.6419934e-01
  2.8705056e+00
  1.2208967e+00
 -1.4827389e+00
 -1.2029964e+00
 -9.9619699e-01
 -4.3905091e-01
 -2.1388526e+00
 -9.1291988e-01
 -1.1559868e+00
 -1.2266105e+00
  2.0511949e+00
  1.0360956e+00
 -1.8081753e+00
 -1.9504529e+00
  9.5506859e-01
 -1.2963805e+00
 -2.9078037e-01
 -2.4823091e+00
 -1.3853457e+00
 -2.8298359e+00
  6.9134045e-01
 -3.0850720e+00
 -2.7955725e+00
  4.9526405e+00
  1.3781044e+00
  1.9453427e+00
  1.9860324e+00
  9.4942927e-01
  6.2471646e-01
  3.1909335e+00
  2.3440681e+00
 -6.2948495e-01
  1.0617685e+00
  4.3448572e+00
 -8.7495846e-01
  6.3418818e-01
 -2.3847580e+00
 -1.4460267e+00
  1.4253689e+00
  6.3521733e+00
 -7.4083596e-01
 -2.1836064e+00
 -1.5165997e+00
  4.3858409e+00
  8.6124039e-01
  2.6284025e+00
  2.8366990e+00
  2.6411498e+00
  1.8939216e+00
 -1.4553508e+00
 -2.3905334e+00
  3.4439869e+00
 -3.9403570e+00
 -5.6857896e-01
  1.3404226e+00
 -8.0940026e-01
  3.5976901e+00
  1.7311298e+00
 -4.9220997e-01
 -1.7259980e+00
  5.9611046e-01
  1.5295250e+00
  7.4352330e-01
  1.3216146e+00
 -1.3088232e+00
 -6.5546026e+00
 -5.4383297e+00
 -2.0282204e+00
 -1.7470006e+00
 -1.3614997e+00
 -7.8811496e-01
  2.0502248e+00
 -9.1675884e-01
  1.9051888e+00
 -1.2488564e+00
  4.8006371e-01
  3.7997905e-02
 -2.3406150e+00
 -3.8559636e-01
 -6.2703860e-01
 -3.9915952e-01
 -8.7376475e-01
  3.6958376e-01
 -4.6591187e+00
  2.2958288e+00
 -3.0860667e+00
 -1.6281821e+00
  1.5701987e+00
  8.0545831e-01
 -2.9911128e-01
  2.1223815e-01
 -3.4621140e-01
 -8.6352420e-01
  5.6178665e-01
 -1.5131323e-01
 -1.1198503e+00
 -1.7209490e-01
 -9.9064428e-01
 -4.7671106e-01
  4.1791365e-01
 -1.2015100e+00
 -2.5586898e+00
 -3.9084957e+00
 -3.0320466e+00
  1.5588092e+00
  3.8491401e-01
 -6.3420314e-01
  4.7911012e-01
 -6.2826532e-01
 -4.1947839e-01
  4.6249810e-01
 -1.4798030e+00
  3.2524085e-01
  2.7643248e-01
  3.2238698e-01
 -7.2610818e-02
 -5.5913013e-01
 -4.1234388e+00
  1.1775265e+00
 -5.3334898e-01
  1.4884860e-02
  5.5210948e-01
 -2.1256595e+00
 -3.1867114e-01
  1.1518551e+00
 -8.3037603e-01
 -6.5301079e-01
  2.1852703e-01
 -1.1912186e+00
  4.5804814e-02
  1.0333318e+00
  3.0047879e-01
  2.0535646e-02
 -1.4007316e+00
  7.0910090e-01
 -1.3828686e+00
 -4.9710590e-01
 -1.4343482e+00
  4.2454353e-01
 -5.6096494e-01
 -8.0767620e-01
  4.4445348e-01
  3.3331254e-01
 -9.8675257e-01
 -7.6357156e-01
  3.0219015e-01
  5.0849758e-02
  2.3924805e-01
 -1.2452384e+00
  1.7583187e+00
  4.7109962e-01
 -3.7384038e+00
  2.1298003e+00
 -7.0881128e-01
 -1.6375482e+00
  1.0636308e+00
  2.9966244e-01
 -8.7678659e-01
 -1.0268790e-01
  1.3739390e+00
  2.1110632e-01
  2.3516641e+00
  3.0606723e-01
  1.8596789e-01
  1.0308764e+00
  4.0234420e-01
  2.2795966e+00
  3.2852453e-01
 -4.0371150e-01
  1.0081685e+00
  1.2391449e+00
  1.5110929e+00
 -2.4690270e-01
  1.4123803e+00
  1.4197378e-01
 -3.2754333e+00
  3.6615185e-02
 -3.5542119e-01
 -3.1136310e-01
 -2.8484913e-02
  2.3684546e-02
  4.7222397e-01
 -7.2061855e-01
  7.8826207e-01
  4.9336880e-01
  4.6178463e-01
 -1.1244522e+00
  1.5743712e+00
 -1.3570805e+00
 -9.6505761e-01
 -2.1631904e-02
 -1.2613644e-01
 -5.3292388e-01
  7.0326334e-01
 -5.5075812e-01
  5.0918990e-01
 -4.1900877e-02
  7.0786214e-01
 -1.4965226e-01
 -5.2150089e-01
 -2.2852864e+00
  7.2981763e-01
 -7.5466186e-01
  1.1244401e+00
  5.5112535e-01
 -1.7121320e+00
 -2.0142531e+00
  2.5862426e-01
 -2.5540476e+00
  6.4531797e-01
 -7.4634528e-01
 -1.3559313e-01
 -1.0285473e-01
  1.7364398e+00
 -5.5073774e-01
  8.1133944e-01
 -4.0063582e-02
 -9.2366211e-02
 -3.4881264e-02
 -1.7186801e-01
  4.2022344e-01
 -1.1561619e+00
  5.0590187e-01
  1.3075349e-01
  5.6352854e-01
  2.8992379e-01
  1.2511913e+00
  2.2272930e+00
  2.7198775e+00
  3.1094406e+00
 -5.3357202e-01
 -2.1183562e+00
  3.3187634e-01
  2.7618332e+00
  2.6002328e+00
 -2.9885796e-01
 -1.1512086e+00
  1.1867858e-01
 -2.6471920e+00
  9.6387190e-01
  1.8256946e+00
  1.1948400e+00
  2.7888528e-01
 -1.1306876e-01
  1.1367168e+00
 -1.8479763e-02
  2.2842145e-01
  6.1524495e-02
 -1.0305847e+00
  1.7285070e+00
  7.2970283e-01
  8.8169076e-02
 -5.0748253e-01
 -2.1720134e-01
 -9.1802657e-01
 -4.3977696e-01
  5.7337207e-01
  4.5865574e-01
  5.0799394e-01
  2.6900141e+00
 -3.1958411e+00
  5.4505205e-01
 -2.7529815e-01
 -1.1505063e+00
  5.6105953e-01
 -1.2294802e-01
  1.5762955e-01
  1.3017030e-01
  7.7288300e-01
 -5.9977120e-01
 -1.3828720e+00
 -3.0126697e-01
  1.0093399e+00
  4.2651686e-01
  2.6580283e-01
  9.7238600e-01
  6.9130081e-01
 -9.1310894e-01
 -1.9523591e+00
  4.4677681e-01
 -9.5753813e-01
  9.2775866e-02
 -3.9666742e-01
  1.8670560e-01
 -2.0238000e-01
  1.4113836e-01
  5.2725118e-01
 -4.7936770e-01
  8.1257448e-02
  8.3586937e-01
  2.1478109e-01
 -2.8377399e+00
  2.4746726e+00
 -1.6018493e+00
  2.6809437e+00
  3.9091000e-01
 -1.0746005e+00
 -4.7558048e-01
 -2.5334606e+00
  1.1300982e+00
 -3.9063570e+00
 -9.0004265e-01
  5.7756115e-02
 -6.8900847e-01
 -1.9532983e-01
  1.1310177e+00
 -4.0580850e+00
  3.2595780e-01
  1.2643090e-02
 -1.0352526e+00
 -1.6957572e-02
 -3.2456487e-01
 -2.6292413e-01
 -7.8375381e-01
 -9.7606164e-01
  2.3437769e+00
  2.8003111e-01
 -2.5401089e-01
 -1.3684049e-01
 -1.8459629e-01
 -1.8746804e-01
 -6.6402829e-01
  1.5365502e-01
 -1.0459845e+00
 -8.7496245e-01
  3.7207121e-01
 -8.0343336e-01
 -2.5296271e-01
 -3.2852593e-01
  5.1975280e-01
 -8.2755303e-01
 -4.0985835e-01
 -3.5388968e+00
  2.5396326e-01
  3.9869300e-01
  4.7954977e-01
  1.1712660e-02
  6.1117458e-01
  5.9874314e-01
 -1.6327808e-02
 -2.2692588e-01
  1.6209447e-01
  3.5046226e-01
 -1.6646416e+00
 -1.3950008e+00
  5.7045656e-01
 -1.4497697e-03
 -1.1425667e-01
  4.5645614e+00
  3.2590941e-01
 -4.1555774e-01
  3.5336727e-01
 -1.0637151e-01
  2.4992120e-01
  2.0018421e-01
  2.1197532e-01
 -1.7717102e-01
 -2.6526065e+00
  1.5989019e-01
  7.3841888e-01
  2.2956818e-01
 -3.3102909e-01
 -3.7211794e-01
 -1.2733284e-01
  3.7711734e-01
 -5.4321074e-01
 -2.0482190e+00
  3.7018199e-02
 -1.4129505e-01
 -2.7012080e-01
  5.7309759e-01
 -2.4706292e-01
  4.8928866e-01
  2.4468629e-02
  4.9730249e-02
  1.0992149e-01
  3.2866302e-01
  1.3150065e-01
 -2.0114879e-01
 -3.2062954e-01
  2.4322340e-01
  4.0879884e-01
  9.1080949e-02
 -2.1542080e-01
 -2.9044279e-01
  3.2828233e-01
  5.0811625e-01
 -5.2603358e-01
  1.4349381e+00
  3.7518764e-01
  4.0599242e-02
 -1.8297677e-01
  2.9187337e-01
 -3.5700136e-01
 -5.4684520e-01
  5.4690117e-01
  8.3974612e-01
 -1.0786437e+00
  2.0800364e+00
 -1.6043805e+00
  9.8031324e-01
  8.0477053e-01
  4.7238070e-01
  3.1093676e+00
  9.6894002e-01
 -1.8865769e+00
  5.3131837e-01
 -9.9762070e-01
  1.2429599e+00
  2.1825776e+00
  1.9227800e+00
  1.1478770e+00
  3.6541647e-01
  3.2894328e+00
  9.7663748e-01
  2.1305737e+00
 -4.6632904e-01
 -2.7898011e+00
  5.6811285e-01
  1.8030753e+00
  2.9301844e+00
 -4.1582465e-01
  9.6967407e-02
 -1.0742887e+00
  4.7314611e-01
  1.6103867e-01
 -6.1519879e-01
 -8.8116542e-02
 -2.0667617e+00
 -7.7781081e-02
  1.3151233e+00
  4.1850348e+00
 -3.5494962e-01
 -2.7476296e+00
  2.6133549e+00
 -4.7814140e+00
  9.3595386e-01
  6.6211826e-01
 -1.8547106e-01
  3.4243074e-01
 -1.0561246e+00
 -1.8729693e+00
  3.0535986e+00
  2.5391693e+00
 -1.8925071e+00
  2.9875770e+00
 -7.9058506e-02
 -1.3316518e-01
 -3.4123065e+00
  1.1791829e+00
 -7.4786270e-01
 -1.0655941e+00
  1.4133581e+00
 -1.9463041e+00
  1.3992021e+00
 -6.4663357e-01
  4.4643530e-01
  2.5737235e-01
 -2.3137775e-01
 -4.9176341e-01
  5.8671033e-01
 -1.7783872e+00
  3.5125080e-01
  1.9266685e+00
  2.5272876e-01
 -1.4395577e+00
 -1.6902655e-01
 -8.5804753e-02
 -2.6486956e-02
 -9.2007078e-02
 -4.9478167e-01
  4.6741567e-03
 -3.3663228e-01
 -7.3758781e-02
  2.0607199e-01
 -1.7260683e+00
 -2.5634859e-02
  4.6956915e-01
 -4.1025648e-01
 -3.2109514e-01
  4.0456825e-01
  1.1168021e+00
  4.8080868e-01
  4.7509855e-01
 -2.5383359e-01
 -3.7495613e-02
  1.2898155e+00
  1.1474035e-01
  6.5529311e-01
  5.3779137e-01
  1.3529767e-01
  1.7686850e-01
 -7.6019847e-01
  3.9399096e-01
 -1.2431432e-01
  1.3072293e-01
  4.2948136e-01
  5.7702523e-01
  1.1289459e-01
  6.2334132e-01
  1.4440754e-01
 -2.4771273e+00
  1.7648084e+00
 -7.1375065e+00
  2.8355865e+00
  9.1817832e-01
  3.1825192e+00
 -1.1208321e-02
 -1.0534830e+00
 -1.7582620e+00
 -2.1910000e+00
  1.2526608e+00
 -1.4872034e+00
  1.0834554e+00
 -3.9368024e+00
 -1.2219987e+00
  1.1147097e+00
 -2.0247728e-01
  4.1258048e-02
 -1.4814714e+00
 -2.5022390e+00
  2.2224805e+00
 -3.7617090e-01
 -2.7479002e-01
 -2.0197518e+00
 -3.2310632e-01
  1.7761967e+00
 -1.4478090e-01
  8.1858099e-01
  2.1975046e-01
  6.9721842e-01
 -3.1479666e-01
  4.3255231e-01
  6.4698750e-01
  6.4172530e-01
 -2.1683395e-01
  2.0149863e+00
  1.4176495e+00
  1.2436377e+00
 -5.2019614e-01
 -2.3074222e+00
  6.3256687e-01
 -1.4190344e+00
  4.2726597e-01
 -6.7166863e-03
 -2.9875201e-01
 -3.5469773e-01
  8.0478549e-01
  1.5265651e-01
  1.8710940e-01
  1.1384163e-01
 -2.2985141e+00
  1.3258314e-01
  2.4824300e+00
  1.6628863e+00
 -3.0180750e+00
  2.0784635e-02
 -1.0089452e-01
  9.6585713e-02
 -4.3222222e-01
 -2.8549019e-01
  4.8337618e-01
  6.6998571e-02
  7.7626087e-02
 -1.4331111e-01
  4.6216559e-01
  2.2968858e-04
 -2.7508900e-01
  9.9389240e-02
 -2.2183792e-01
  8.2775317e-02
 -3.8499708e+00
  1.4616416e+00
  5.3099126e-01
  4.0084040e-01
 -2.5437908e+00
 -9.2450455e-02
 -4.8086515e-01
 -1.6670352e-01
 -1.4095701e+00
 -2.7471299e+00
 -1.6254292e+00
  1.2211561e+00
 -8.6271936e-01
 -6.3033962e-01
 -2.7625096e+00
 -4.1201529e-03
  1.3755943e-02
  7.6470923e-01
  3.8757119e-01
  1.6955364e-01
 -4.1532292e+00
 -7.4437350e-01
  9.9655652e-01
 -3.4871069e-01
  3.8132975e+00
  5.9688771e-01
  3.2440799e-01
 -1.2222569e+00
  3.6581263e-01
 -4.6937659e-01
 -6.4742154e-01
  4.8917490e-01
  5.5168045e-01
 -2.1305470e-01
 -1.4756635e-02
  4.8256106e+00
  6.9819939e-01
 -7.7507657e-01
  1.9974035e+00
 -3.2206244e+00
 -2.4877205e+00
 -1.4292924e+00
 -1.7888365e+00
  9.8437303e-01
 -3.1705275e+00
 -9.8746605e-02
 -4.6651441e-01
 -1.8770516e+00
 -8.7306786e-01
 -1.9476707e+00
  1.3969344e+00
 -5.7984877e-01
  9.0991342e-01
 -2.3328908e-01
 -1.1629404e-01
  1.9459155e+00
  1.8530482e-01
 -9.4311053e-01
 -1.0441177e+00
 -2.7115536e+00
 -8.0204064e-01
  3.4832075e-02
 -9.3388557e-01
 -1.4048271e+00
 -2.1313120e-02
  5.0194193e-02
 -2.5640094e-01
 -3.1227121e-01
  4.7652456e-01
 -2.4008687e+00
 -1.0401921e+00
  1.2520866e+00
  5.4035239e+00
  2.2387280e+00
  1.4874601e-01
 -1.9249138e-01
 -1.4160727e+00
  1.7988917e+00
  4.2399144e-01
 -1.4702233e+00
 -2.1910188e+00
 -5.0668222e-01
 -6.4883226e-01
 -1.6852430e+00
 -2.0094652e+00
 -1.0804871e+00
 -1.1700381e+00
 -5.4144955e-01
  5.6660193e-01
 -1.9760555e+00
 -5.0358661e-03
 -2.1077828e+00
 -5.1521456e-01
  4.8044673e-01
 -5.4707378e-01
  3.7885958e-01
  3.6264071e-01
  3.6160898e-01
  2.9141588e-02
 -4.1350091e-01
  2.3693200e-02
 -3.8656991e-02
 -1.1064225e-01
 -4.9838743e-01
 -2.7848771e-02
  9.5934701e-01
 -2.3115823e-01
 -2.4008000e-01
 -6.2556916e-01
 -9.5716465e-01
  3.8964510e-01
  6.5073587e-02
 -8.5297596e-01
 -1.6393165e-01
  5.3595996e-01
 -2.2664580e-01
 -3.5971755e-01
 -6.4768875e-01
  2.6845056e-01
 -3.0095735e+00
  2.0002177e-01
  1.3319655e-01
  4.7843552e-01
  4.5327690e-01
  1.9424255e-01
 -1.6887371e-01
 -6.4453259e-02
 -2.9909378e-01
 -1.1767389e-02
  4.0993956e-01
 -3.1726098e-01
  1.9526605e-01
 -2.4126349e-01
  4.1424330e-02
  4.4248146e-01
 -3.0429497e-01
  4.7354937e-01
 -6.9293112e-01
 -3.5333964e-01
  1.4223377e-01
  3.0337749e+00
  1.9911680e-01
 -2.5928101e-01
 -1.8174793e+00
 -6.7464226e-01
 -1.4532916e-01
 -3.3285415e-01
 -1.4331492e+00
  2.0438284e-01
  1.3251863e-01
  6.3103378e-02
  4.2202997e-01
 -1.3011351e+00
 -2.7044770e-01
 -1.1380070e+00
 -9.5410448e-01
  1.2796793e+00
  1.5410419e-01
  3.1097707e-01
 -3.5819089e+00
  2.0499535e+00
  4.8099107e-01
  1.0268472e-01
  1.4255787e+00
  2.2312208e-01
  3.1039891e-01
 -5.7296835e-02
  9.4114459e-01
 -8.4204026e-02
 -4.3639648e-01
 -2.7663662e+00
 -2.4464203e-01
  1.3988023e-01
  4.3709002e-02
  2.8858125e-01
  4.7488295e-02
  5.4370236e-01
 -3.4815666e-01
  4.6464282e-01
 -6.8649614e-01
  2.0255315e-01
 -1.0022482e+00
 -9.6864149e-02
  1.2223095e-01
 -9.8750599e-02
 -1.0927217e-01
 -4.2792919e-01
  3.3998555e-01
  4.5261919e-02
 -5.9070271e-01
  4.7029346e-01
  3.0522189e-01
  5.6542516e-01
 -3.8559693e-01
  5.5441535e-01
 -6.5153286e-02
 -1.6531783e-01
 -1.1462476e+00
  1.2674479e-01
  2.3756349e-01
 -3.4954649e-01
 -7.9162985e-02
  1.4378798e-01
 -9.0915427e-02
  7.9554343e-01
 -2.6161185e-01
 -2.3673965e-01
 -5.9919339e-01
  4.4766508e-02
 -4.3597758e-01
  7.7498472e-01
 -7.3999606e-02
 -3.6264169e-01
  5.6582219e-03
 -3.1444496e-01
 -1.1434791e-01
 -1.2285316e+00
 -5.4847276e-01
  2.0361103e-02
 -5.6863070e-01
 -1.5749457e-01
 -1.2857841e-01
 -9.3050838e-02
 -1.5246683e+00
  2.3847161e-01
  2.7458835e-01
 -1.0306218e-02
  1.5063819e-01
 -2.6185295e-01
 -7.0282835e-01
 -7.4526131e-02
 -3.1252959e-01
  2.6616263e+00
  3.3690342e-01
 -2.4943647e+00
  5.1813120e-01
 -4.0875173e-01
  3.7099278e-01
  5.9479010e-01
  1.6920511e-01
 -2.2387013e-01
  1.2219502e-01
  3.6151922e-01
 -3.2472154e-01
  3.5777324e-01
 -6.4529014e-01
  2.3314275e-01
 -3.7765167e+00
 -2.8192663e-01
  7.0277214e-01
 -4.1502237e-01
  3.1954354e-01
  2.1210067e+00
  1.0458207e+00
 -6.7255139e-01
  3.1325218e-01
  1.4749960e+00
  3.8873407e-01
 -4.9376372e-01
 -2.3771832e+00
 -6.4818090e-01
  1.0284598e-02
 -1.5866897e+00
 -3.3416903e-01
 -8.5005945e-01
 -1.7975924e+00
  1.2808131e-01
  2.0088580e+00
 -2.7305496e-01
  1.2307873e+00
  3.6328959e-01
 -1.7022808e-01
  1.0242989e+00
 -8.5145287e-02
  1.9632701e+00
  6.5636024e-02
  2.3598931e+00
  1.4011987e+00
  7.3539662e-01
  5.1902317e-02
  3.7372223e-01
  1.3151917e-01
 -2.9305118e-01
 -1.7702423e-01
 -6.3754642e-01
  8.0375493e-01
  3.2252166e-02
  1.9137976e-01
  7.1964171e-03
  3.9975846e-01
  1.6032195e-01
 -8.2997596e-01
 -6.8448640e-02
 -1.8286531e+00
  3.9990163e-01
  1.4229887e+00
  8.2463211e-01
 -1.8952001e+00
  7.8484446e-01
  1.7902812e+00
  5.3401047e-01
  2.7942371e-01
 -3.7922949e-01
  4.0522283e-01
 -2.6147830e-01
  2.3226323e+00
 -5.1312423e-01
 -2.8661028e-01
  1.4565170e-03
 -1.0707143e-01
 -3.4203991e-02
 -6.7918956e-01
  3.1041604e-01
  1.8277876e-01
 -5.7942742e-03
 -2.2635524e+00
  6.0350404e+00
  4.9728423e-01
 -1.1860604e+00
  9.1505134e-01
  2.4351184e+00
  1.0366457e+00
  1.2514030e+00
 -1.3643850e+00
 -3.4626288e+00
  2.9602056e+00
  5.1789385e-01
  1.6411122e+00
 -2.8598709e+00
 -1.6988983e+00
  3.7660658e+00
  9.4399166e-01
 -3.5581200e+00
 -1.2672927e+00
  8.3630681e-01
 -4.8958275e-01
  4.6294273e-04
 -1.7496351e+00
  1.7181408e-01
  2.3684399e+00
 -2.4124679e-01
 -1.1419271e-01
 -2.0902095e+00
  2.3102194e-01
  1.6071783e+00
 -2.6358277e-01
  3.7112045e-01
 -1.1947002e+00
 -8.1935100e-02
  9.8906577e-01
 -2.7263987e+00
 -2.7841768e-01
 -2.4969893e+00
 -3.9008057e+00
  1.4820588e+00
  1.3270856e+00
 -4.1548553e-01
 -1.1583652e+00
 -1.5070682e+00
 -1.6893539e+00
  4.3288741e-01
 -1.9395033e-01
  3.6394501e-01
  1.4320982e+00
  2.7470702e-01
 -1.7830106e+00
 -2.0129015e-01
  1.7738603e+00
  1.1284162e+00
  3.6190617e-01
  5.0284898e-01
  1.0559307e+00
  1.8009375e+00
  1.0474867e+00
  1.5186383e-01
  2.6326704e-01
  2.7814275e-01
 -2.5181291e-01
 -1.5432256e-01
  9.4478754e-03
  5.4514712e-01
 -2.6575464e-01
  4.2710984e-01
 -9.9656411e-02
  3.3353066e-01
 -2.0371277e+00
  1.2108599e-02
  6.2784833e-01
  5.9274554e+00
  9.2089540e-01
 -1.2456244e+00
 -1.4514523e+00
 -1.7539766e+00
 -7.7171665e-01
  2.8512990e+00
 -3.7168887e+00
  1.1411742e+00
  7.1474898e-01
  9.2495221e-01
 -2.2432353e-01
 -1.4510161e+00
  1.6426075e+00
 -1.5957345e+00
 -1.2463009e-01
  4.7502860e-01
  7.9828836e-02
  1.7573537e+00
 -2.8407426e+00
  1.1155771e+00
  1.5831696e+00
 -3.4702495e-02
 -6.2536436e-01
 -3.5002792e-01
  7.5225222e-01
 -5.0407815e-01
 -8.3368921e-01
 -3.3947736e-01
 -6.3943766e-02
 -1.7453772e-01
 -4.1615903e-01
 -2.6949069e+00
 -5.4701596e-01
  1.1843066e+00
  1.3417156e+00
  6.9552648e-01
  6.9237745e-01
 -1.0500755e+00
  2.2340646e+00
 -1.1726280e-01
 -1.3513176e+00
  2.3883158e-01
 -1.7507200e+00
  4.6091777e-01
 -1.7239335e+00
 -3.3527322e+00
 -2.1392591e+00
 -1.1144724e+00
  4.2863240e+00
 -7.1082991e-01
 -2.5783660e+00
  1.0738809e+00
 -5.0384325e-01
  2.3685548e+00
 -2.8518298e-01
 -9.9203807e-01
 -6.9676894e-01
  6.3527101e-01
 -1.6873710e-02
  5.7230252e-01
 -1.6797975e-01
 -2.3546146e-01
 -2.9451698e-01
 -4.3704000e-01
 -6.7717397e-01
  2.0869961e-01
 -2.2147131e+00
 -1.8135067e+00
  4.0670416e-01
  1.3075167e+00
  4.4934816e+00
 -6.8940777e-01
 -1.2732116e+00
 -3.2834365e+00
 -3.2199439e-01
 -1.3897104e+00
 -7.7418201e-02
 -2.0985609e-01
 -2.4592416e-01
  2.7819676e+00
 -1.4340061e-01
 -1.6309923e+00
 -1.5009379e+00
  3.2383215e+00
  2.1593444e+00
  1.6963574e+00
 -4.1870503e+00
  6.9998682e-01
 -7.3183215e-01
  2.5288193e+00
  3.1089993e+00
  7.5129473e-01
  5.7909712e-03
 -2.1217421e-01
 -1.0721351e+00
  3.3219345e-02
  8.1464350e-02
  1.5721324e-01
 -4.5941746e-01
 -7.9778957e-01
 -1.2402455e-01
  4.8249906e-01
  2.3483965e+00
 -1.8926975e-01
 -2.7035454e-01
 -3.0716464e-01
  4.8608959e-01
  3.6577985e-01
  2.0363535e-01
  5.7221740e-01
 -4.6784574e-01
 -1.0861744e-01
 -1.6989513e-01
 -4.3588832e-01
  4.3943703e-01
  5.2438623e-01
 -3.2991552e-01
 -2.5060204e-01
  9.0009874e-01
 -2.2582556e-01
 -3.7300702e-02
  1.6349167e-02
 -4.5956126e-01
 -4.1227549e-01
  5.7646668e-01
  3.7879717e-01
 -1.3444018e+00
 -3.9724630e-01
 -2.8984955e-01
 -3.6899608e-02
 -1.5302707e-01
  2.9446474e-01
  2.9912159e+00
  3.6155012e-01
 -4.3188950e-01
  8.8283040e-02
 -3.7600391e+00
 -2.5586063e-01
 -4.8199768e+00
  3.2647212e+00
  2.3919187e+00
 -1.1541660e+00
 -1.5967880e+00
 -8.3582932e-01
  1.9557364e-01
 -7.9670292e-01
 -4.7869973e-02
 -2.0381957e-01
  2.5616760e+00
 -7.9583793e+00
 -2.5795815e+00
  3.6309409e+00
 -1.5037832e-01
  3.4367173e+00
 -7.1088135e-01
 -3.9317234e+00
  1.5940644e+00
  5.5428129e-02
  2.3435404e+00
 -1.5787652e+00
 -1.7730664e+00
  6.2458432e-01
  1.1459153e+00
 -6.9726020e-01
  4.3069902e-01
  7.1651971e-01
  5.8810627e-01
  2.3549362e-01
  9.0095372e-04
 -3.8953349e-01
 -1.6590134e+00
  3.9080957e-01
 -2.0881085e+00
  6.0379559e-01
  1.7196761e+00
  5.0773611e+00
 -9.5494986e-01
  6.1816502e-01
 -5.1301651e-02
 -2.0491893e+00
 -1.3472885e+00
  1.7479461e-02
 -4.5410359e-01
 -2.1476408e-02
 -6.1217362e-01
  9.2138982e-01
 -7.4937880e-01
 -4.1762036e-01
  5.2456105e-01
 -3.3388269e+00
  3.7402907e-01
 -2.5645635e+00
  4.1252893e-01
 -2.8956389e-01
 -1.0836340e-01
  3.3562813e-02
  2.3254997e-01
  6.5181661e-01
  1.1878201e+00
  1.9643428e+00
  8.4353805e-02
 -6.2378210e-01
 -8.3006909e-03
  2.0073631e-01
 -2.7632596e-02
 -1.1697926e-01
  6.1341041e-01
 -5.3629673e-01
 -3.6615741e-01
 -2.3236933e+00
  2.4423618e+00
 -2.4591970e-01
 -1.6950527e-01
  9.7430915e-02
  1.4246556e+00
 -8.1862748e-01
  3.3253856e-02
  1.2327288e+00
 -3.4796941e+00
  1.2069372e+00
 -2.1814866e-01
 -7.7459216e-02
 -1.9377327e-01
 -1.5317806e+00
  4.1506931e-01
 -1.1785538e+00
  2.0212445e+00
 -5.6650651e-01
  2.1429276e-02
  1.0809406e+00
  1.9261172e+00
 -4.1287068e-01
 -3.0197304e-01
  3.3986574e-01
 -1.6128822e-01
  5.4219472e-01
 -2.2437093e-01
  1.3551728e+00
  3.0341458e-01
 -1.3554047e-01
  4.2370754e-01
  1.7654005e+00
 -4.3456607e+00
 -7.0662498e-01
  1.2641962e-01
 -2.5328166e+00
  1.2419915e+00
 -5.9278178e-01
  1.3911264e+00
 -2.5082713e-01
  1.0714908e+00
 -7.2509386e-03
 -3.4580657e-01
 -9.1712184e-02
 -2.4756621e-01
 -4.7670984e-01
  4.4679606e-01
  8.0547398e-01
  8.3840418e-01
  1.2931895e+00
  1.1204790e+00
  9.5225906e-01
  1.4194590e-01
  3.2861301e-01
 -4.2626616e-01
  5.1605535e-01
 -3.0559924e-01
 -6.0860377e-02
  5.7746536e-01
 -2.2882764e-01
  5.5835795e-01
 -3.9590889e-01
 -3.0143830e-01
  2.0379585e-01
  4.5714927e-01
  2.7583581e-01
  1.1860838e+00
  1.3015083e+00
 -1.8453958e+00
  3.0408435e+00
  5.1956053e+00
 -1.7952138e+00
  1.6731089e+00
 -2.4138243e+00
  1.4973629e+00
 -8.1442714e-01
  1.0519929e+00
  4.4245937e-01
  3.0695872e+00
  1.0323194e+00
 -6.0718375e-01
 -2.4426220e-01
  2.6280706e+00
 -3.0378981e+00
  6.0469812e-01
 -2.1461775e+00
  1.0377910e+00
  1.4500469e-01
  7.0571190e-01
  7.5976700e-01
  9.6717161e-01
 -2.9957065e-01
 -6.9712627e-01
  1.1701480e+00
  1.2687500e-01
  2.7410197e-01
 -3.3858699e-01
  2.9940145e+00
  1.4732869e+00
  9.7459090e-01
  1.5105122e-01
  5.8123551e-02
 -3.0313489e-01
 -5.9478217e-01
 -2.5559422e-01
  2.9214761e-01
  8.0736607e-02
 -5.4921609e-01
 -1.0339985e+00
  2.9470066e-02
 -1.1251355e+00
  6.5518491e-02
 -3.4593615e-01
 -8.7205690e-01
  4.4654486e-01
  4.1792360e-01
 -3.2727766e-01
  5.0731474e-01
  9.8395181e-01
  6.1288244e-01
 -9.9341375e-01
  1.6255188e-01
  1.7741597e-01
  2.0863283e+00
 -5.5877090e-01
 -1.2340324e-01
  6.6213137e-01
  1.7313741e-01
 -3.1914544e-01
  1.7351949e-01
  9.1139391e-02
  2.8466891e-02
  1.0513307e-01
  5.0262952e-01
 -3.0840915e-01
 -7.5875774e-02
  4.6036485e-01
  2.0200832e+00
 -1.2364842e+00
 -2.6596601e+00
 -4.0545005e-01
 -1.8367471e+00
 -8.7261610e-02
  7.5588411e-01
 -4.3862362e+00
 -1.5908401e+00
  1.7706950e+00
  1.4806592e+00
  1.6998444e+00
 -9.7656149e-01
 -1.1498603e+00
  2.3217402e-01
  1.8941209e-01
  4.3545413e+00
 -1.1274599e-01
 -9.0511519e-01
 -2.5476712e-01
  1.6172616e+00
  4.8347420e-01
 -1.1376005e+00
 -5.3494370e-01
 -1.9640060e-01
  5.2306479e-01
 -1.0917250e+00
  8.1956938e-02
  6.7629021e-01
  4.1568264e-01
 -5.0674313e-01
  1.5018804e+00
  3.4467834e-01
 -5.7149690e-01
  2.7285469e+00
  1.6954538e+00
  1.0950936e+00
  9.3041140e-01
  9.9413133e-01
  1.3743458e+00
  4.7102854e-01
 -1.2608072e+00
 -2.2642237e-01
  2.9436293e-01
  9.7288525e-01
 -1.7758098e-01
  8.3275354e-01
 -2.8800063e+00
  6.5709996e-01
  3.0094862e+00
  1.2689471e-01
  1.5134635e+00
  2.2576183e-01
  6.8136507e-01
  1.2803923e+00
  2.0866603e-01
  1.2801400e+00
  5.9666818e-01
 -6.0111892e-01
  9.9781203e-01
  5.9772259e-01
  1.2953082e+00
 -1.3734087e+00
 -3.8704494e-01
 -7.8587331e-02
 -2.3842166e-01
  4.4750088e-01
  5.2671683e-01
 -1.2633042e+00
  2.6730663e-01
  1.0377340e+00
 -2.4120843e+00
 -8.7887686e-01
 -1.8978920e+00
  1.3230217e-03
  6.8762436e+00
 -1.0424892e+00
  2.7531447e+00
  2.3678845e-01
 -1.0987800e-01
 -1.0095676e-01
 -1.4214540e+00
 -1.3328648e-01
 -2.2616738e-01
 -1.9502059e-01
  7.1194135e-02
 -1.0889629e+00
  1.9573579e+00
  3.3931959e+00
  6.7887527e-01
  6.2872176e-03
  3.1241739e-01
 -1.3184457e-01
  2.7793717e-01
  2.6886996e-02
 -3.9159098e-01
  2.2762712e-02
  2.0757891e-01
 -3.3821180e-02
 -8.1795579e-01
 -1.0604680e+00
  1.1781216e-01
  2.1823515e-01
  1.3248318e-01
  3.1904396e-02
  1.4785101e-01
  5.7801133e-01
 -3.5772622e-02
  3.2478981e+00
 -1.5457436e-01
 -6.0158055e-02
  1.8739778e-01
 -1.7846633e-01
 -8.9216726e-03
 -1.7291245e-01
 -1.2178664e+00
 -3.3062011e-01
 -4.6191514e-01
  5.7194039e-02
 -2.7410921e-01
 -5.2205515e-01
  3.4880072e-01
 -1.4944179e-01
  7.8904134e-01
 -2.8605493e-02
  7.5952739e-02
  5.0150480e-02
  1.7919409e-01
  2.2669735e+00
  2.1936633e-01
  6.8612397e-03
  1.5090337e-01
  5.9009933e-01
 -1.0085232e-01
 -2.7587140e+00
  1.8733677e-02
 -2.6448745e-01
 -5.9626702e-02
 -4.8377770e-01
  2.0446589e+00
 -3.9026529e-01
  2.6207161e-01
 -4.4519874e-01
 -3.9643720e-01
  4.0986028e-01
 -2.3333921e-01
  1.4496128e-01
 -9.0936936e-02
 -5.6746107e-01
 -3.2572446e+00
 -4.6550435e-01
  2.1044460e-01
  2.4645661e-01
  5.5570012e-01
 -6.9965738e-01
 -1.5864478e-01
 -3.4128696e-01
 -8.5284658e-02
  4.3531397e-01
 -1.1022244e-01
 -9.8338298e-02
 -4.1265186e-02
 -3.0086267e-01
  2.3187472e-01
 -1.3722958e-01
 -2.3793159e-01
 -1.8934759e-01
  1.6692404e-01
 -7.1915597e-01
 -1.4017560e-01
 -1.2318355e-01
  8.7849051e-01
  5.5515063e-01
  4.8913610e-01
 -1.9170448e+00
 -3.1293499e+00
  1.8186016e+00
  2.2434294e+00
  1.3205960e+00
 -1.0930101e+00
 -7.9505455e-01
  6.0235757e-01
 -3.7741952e+00
  1.1968403e+00
  6.7822605e-01
  1.5842663e+00
  1.0120261e+00
 -1.0727447e+00
 -6.1448449e-01
 -5.7967275e-01
  1.4153656e+00
  7.3789763e-01
 -2.3562343e+00
 -6.9671184e-01
 -5.2487135e-01
  2.5078943e+00
 -1.8637153e+00
 -3.2423344e-01
 -2.1688068e+00
  1.6243041e+00
  2.4022886e-01
 -1.6719092e-01
 -7.4209946e-01
 -1.2389053e-01
 -3.3864316e-01
 -1.4488731e-01
 -1.1339258e-01
 -7.7444869e-01
  2.5668934e-01
 -8.0884296e-01
  4.1655177e-01
  7.3926884e-01
  8.5241675e-01
  5.0039968e+00
 -1.3894105e-01
 -7.3452377e-01
 -5.3630877e-01
  2.2746758e-01
  7.4484479e-01
 -2.3003908e-01
  5.7857200e-03
 -2.9223156e-01
 -2.2195949e-01
  2.7737311e-01
  1.2108331e+00
  3.6113981e-02
  1.6630808e+00
 -1.3095728e-01
 -5.9074018e-02
  2.6184082e-01
 -1.6577931e-01
 -3.6635339e-01
 -1.3843991e-01
  5.7029445e-02
 -5.6409007e-01
  2.8028044e-01
  4.0514055e-01
 -4.1675489e-02
  3.0470866e-01
 -4.0912715e-01
 -7.5950485e-01
 -2.9972103e-01
  1.6112963e+00
 -3.4702912e-01
 -2.5188428e-01
 -2.0701702e-01
  4.9100360e-03
  4.8534387e-01
  1.2488177e+00
  1.2758353e+00
 -9.0458438e-02
 -2.8068063e-01
  1.6993503e-01
 -1.8893822e-01
 -4.1834572e-01
  2.9714590e-01
  2.7154383e-01
 -6.8380870e-02
 -1.9220431e-01
 -2.8675851e-01
 -3.1785128e-01
 -8.4907866e-01
  3.1160591e-02
 -5.9980679e-01
  2.4852808e-01
 -6.5977824e-01
  2.4500014e-01
  5.1351506e-01
 -6.7460090e-01
 -1.9233091e-01
  5.8861840e-01
  2.5157937e-01
  3.4316012e-01
 -4.2732710e-01
  6.2642567e-02
 -3.3095609e-02
 -4.1750741e+00
  2.6402633e+00
  4.6202376e-02
  5.0048938e+00
 -5.8599720e+00
 -2.0187883e+00
  5.7832539e-01
 -1.3867614e-01
  1.1798842e+00
 -6.6411668e-01
 -1.4805273e+00
 -1.5088211e-01
  3.4465590e+00
  3.9494188e+00
 -8.8638204e-01
  1.4364227e+00
  1.5345725e+00
  8.0734050e-01
 -1.3267252e+00
 -2.7999324e-01
  1.0989425e+00
 -4.0420219e-01
  8.5233498e-01
 -3.8356179e-01
  1.7052828e+00
  7.5336355e-01
 -3.1880772e-01
 -1.2258961e-01
  3.5589764e-01
 -7.3073429e-01
 -1.0949566e-02
 -1.6098021e+00
  4.1729438e-01
 -2.3716061e-01
  8.6875916e-02
 -9.2583764e-03
  4.0489802e-01
 -1.6138557e-02
  1.7720356e+00
 -2.1979315e+00
  3.0227110e+00
  3.1349346e-01
 -2.0537653e+00
 -1.9589542e+00
  2.9452894e+00
  5.7631010e-01
  1.5488023e+00
  5.0830251e-01
 -3.1997040e-01
 -1.7002943e+00
  2.9791060e-01
  1.1866765e+00
  9.0814185e-01
 -1.5735974e+00
  6.1576253e-01
  8.1564486e-01
 -2.1970718e+00
  2.6500516e+00
  6.3311625e-01
 -1.2551543e+00
  2.4675906e+00
  1.3974413e+00
  2.1098480e+00
 -8.0887102e-02
  7.3277044e-01
 -1.2547475e+00
  1.5169586e-01
  8.1935573e-01
  6.3301301e-01
 -4.9113375e-01
 -1.3786417e+00
 -2.2032893e-01
 -1.0738887e+00
  2.4886127e+00
 -2.0319178e+00
 -3.4551385e-01
 -8.4862989e-01
  2.9635179e+00
  2.0406423e+00
  1.0444233e+00
 -3.1015509e-01
  7.8999028e-03
 -1.1904290e+00
 -2.2235184e+00
  7.8963220e-01
  8.9254689e-01
  1.0476558e+00
 -6.5266430e-01
 -1.5630374e+00
  1.2992224e+00
 -1.5347338e+00
  1.2496785e+00
 -2.9139440e+00
 -5.1651216e-01
  5.1155835e-01
  1.6644003e+00
 -4.8393807e-01
  1.9382529e+00
  6.9785696e-01
 -3.8816053e-01
 -9.8693883e-01
  4.5897903e+00
 -3.8087928e-01
 -1.3479283e-01
  6.4549369e-01
 -8.6289532e-02
 -2.9565373e-01
  5.9784949e-01
  7.6719213e-01
  1.8014058e-01
  2.9454863e+00
 -3.7444115e-01
  3.2444582e+00
  9.7667885e-01
 -1.6783818e+00
 -2.2829525e+00
 -3.8189888e-01
 -2.0760293e+00
 -7.2562259e-01
  8.4967268e-01
  1.0793506e-01
 -2.0554885e-01
  8.0155894e-02
  2.4054177e+00
 -4.0909082e-01
  2.8752786e-01
  3.8138840e-01
 -9.2168763e-02
 -6.7501611e-01
 -5.7393396e-01
 -3.3743906e+00
  1.7410627e-01
  1.3180933e+00
 -4.9050313e-01
 -1.1426384e-02
  3.9533058e-01
 -1.6196884e-01
 -3.7144190e-01
 -5.3060532e-02
 -6.6303688e-01
 -4.0243530e-01
 -3.5503364e-01
  6.8406910e-01
  2.3644085e+00
 -2.1440010e+00
  1.0816809e+00
 -1.1473178e+00
 -1.1175232e+00
 -7.2435069e-01
 -1.7542499e+00
  1.2872471e+00
  1.0654659e+00
  1.9225899e+00
  3.8996251e+00
 -7.7944541e-01
 -8.9760679e-01
  4.0864331e-01
  2.3314378e+00
 -2.0691006e+00
  1.5106955e+00
 -3.5247188e+00
 -5.0659376e-01
 -1.4811295e-01
 -1.4411888e+00
 -1.7200546e-04
  2.6764657e+00
 -9.7623193e-01
  7.2525496e+00
  3.2817185e-02
  4.3366539e-01
  7.1624190e-01
  6.1008883e-01
  2.8935902e-02
  1.8099368e-01
  8.1418697e-03
 -5.3591245e-01
 -1.2588028e+00
 -1.9315003e-01
 -7.7079064e-01
 -1.1134102e-01
  2.0055810e-02
 -3.6365822e-01
 -5.1706409e-01
  6.1793381e-01
 -2.7785523e-02
  4.0063971e-01
  5.4901743e-01
  6.4137393e-01
  3.5487965e-01
  2.9969633e-01
 -1.3641922e-01
 -3.8851970e-01
 -1.7788877e+00
 -2.9363048e-01
 -3.1193519e-01
  5.1108390e-01
 -6.6870799e+00
  2.3053932e-01
  2.7094570e-01
  2.0291956e-01
 -3.0211401e-01
  4.8798048e-01
 -6.2165749e-01
 -1.0396999e-01
  3.4410313e-01
 -1.3628448e-02
  3.8228915e+00
 -4.4924922e-02
  2.9359424e-01
 -3.3971921e-01
  4.3397865e-01
  3.4332642e-01
 -6.4292556e-01
  1.1390400e+00
  8.3806044e-01
 -8.9920247e-01
 -1.6002276e+00
 -3.5218279e+00
  1.4432118e-02
  1.1337371e+00
  2.2876559e-01
  2.8411350e+00
 -1.5056760e+00
  6.6128236e-01
  1.8358898e+00
  1.8805301e+00
 -3.7342528e-01
  5.2950144e+00
  8.3671892e-01
  3.2364471e+00
 -3.1466192e-01
 -2.1867867e-01
  7.6670372e-01
  2.2608118e+00
  7.0384350e-03
  1.9814430e-01
  2.2388439e+00
 -5.8694810e-01
  1.2428423e-01
 -6.6847086e-01
  2.7554974e-01
  7.1621668e-01
 -4.0163454e-01
  4.4793792e-02
 -1.9631414e-01
  5.0959361e-01
  8.5329098e-01
  5.5170071e-01
 -4.6926877e-01
  6.2979454e-01
 -9.7363263e-02
 -4.6191493e-01
  2.9013441e+00
  5.3601716e-02
  6.5987188e-01
  2.2001335e-01
 -5.3022951e-01
  5.5251813e-01
 -2.2403326e-02
 -4.7284726e-02
 -8.9710820e-01
  3.5063767e-01
  5.1304579e-02
 -9.9172777e-01
  1.2137526e+00
  4.3828711e-01
  9.0799898e-01
  2.9202533e-01
  3.5882580e-01
  4.2427152e-01
 -1.0998498e+00
 -2.1525241e-01
  7.3776025e-01
  3.2436457e-01
  1.2646365e-02
  9.3732141e-02
 -2.2149102e-01
 -1.0827065e-01
 -7.3431289e-01
 -6.2188841e-02
  9.9859394e-02
  1.6789484e-01
 -1.3240894e-02
  1.0000579e+00
 -3.2022226e-01
 -8.3085842e-02
 -1.4006582e+00
 -4.2173642e-01
  1.0681472e+00
 -2.5329101e-01
  1.3593273e+00
  8.5319543e-01
  1.4245743e+00
  6.6741272e-03
 -7.0043898e-01
  2.4849496e+00
  5.3300393e-01
  3.4528613e-02
  7.1881324e-01
  1.3051206e+00
 -1.7294512e+00
  2.0407977e+00
  3.6837091e+00
  2.2774148e+00
  1.9371190e+00
 -1.1143404e+00
  1.2948593e+00
  3.7431979e-01
 -1.1818356e-01
 -2.6810354e-01
 -5.5012304e-01
  1.3173169e-01
  8.0819380e-01
 -2.5606787e-01
  4.0434721e-01
 -4.4036653e-02
 -8.7623268e-02
  3.6512788e-02
 -5.0571609e+00
 -3.4287903e+00
  1.1413928e-01
  1.7136418e+00
 -2.7040927e+00
 -2.2985463e+00
  1.7699957e+00
  1.9308616e+00
 -7.5477856e-01
 -4.1885138e+00
 -2.5177038e-01
 -1.7113490e+00
 -2.9099652e-01
 -8.6495012e-01
  8.2241148e-01
  6.8268979e-01
  5.3001505e-01
  2.9487877e+00
 -6.8451619e-01
  1.7229964e+00
 -6.0030330e-02
 -1.5244009e+00
 -1.5387311e+00
 -1.4377602e-02
 -1.6702582e+00
 -7.2941649e-01
  1.0939822e+00
 -7.3763035e-02
  1.7813160e-01
  4.4617537e-01
 -1.8153083e-01
  3.0796183e-02
  1.1017455e+00
 -5.3297061e-02
 -4.8484510e-01
 -2.4640679e+00
  2.5098088e+00
 -1.9542619e+00
 -2.9090421e+00
  7.7637762e-01
  7.0743173e-01
  1.5860620e+00
  2.3945479e+00
  6.8207258e-01
 -1.9059119e+00
  8.0185962e-01
  8.4889261e-03
  7.1270251e-01
  5.4682356e-01
  2.8604105e+00
  2.6229668e-01
 -8.6710048e-01
 -3.9174506e-01
 -9.7777212e-01
 -4.4597718e-01
  1.5263063e+00
 -3.5629249e-01
  1.5367115e+00
  1.2377757e+00
 -2.5396359e+00
 -7.7444774e-01
 -1.2249361e-01
 -2.4574225e+00
  1.4080457e-01
 -3.3284950e-01
 -8.8396460e-02
 -4.5396009e-01
  9.3994784e-01
  5.6011856e-01
  8.2521416e-02
  4.4666299e-01
 -2.5452444e-01
  1.5774326e+00
 -2.1595438e+00
 -1.2523767e+00
  2.8530243e-01
  2.0644772e+00
  9.7155130e-01
  9.5939904e-01
 -1.2255948e+00
 -1.6020592e-02
  8.4817356e-01
  1.6275274e+00
  1.4190439e+00
  2.2043073e-01
 -2.5320325e+00
  2.0673272e-01
 -6.2802672e+00
  2.9548338e-01
  7.3609841e-01
 -1.0424433e+00
  2.1206836e-01
 -2.4040291e+00
  1.1149608e+00
 -1.1368980e+00
 -4.9690863e-01
  2.6483855e-01
  2.5038069e-01
  6.7908818e-01
  7.7580318e-02
  1.0570670e+00
 -3.1265554e+00
  1.1528447e+00
  3.4655365e-01
 -8.4332782e-01
  8.3483733e-02
 -1.4011076e-01
  1.6325110e-01
  3.1272021e-01
 -7.5094067e-02
 -3.7315297e-01
 -1.6508262e-01
  1.2070796e+00
  1.8689078e-01
  5.5460244e-01
  8.5107006e-02
 -4.7159070e-01
 -1.9164930e-01
 -1.1115989e-02
  2.2337280e-02
  1.4476766e-01
 -1.8219396e-01
 -4.2347834e-01
  4.7791682e-02
 -3.1098440e-01
  8.6969890e-02
  4.3318957e-01
  2.7038965e-01
 -2.7697310e+00
  7.6200590e-02
 -1.4337837e+00
  3.7500888e-01
 -2.5843847e-01
 -3.9887443e-01
  7.9616535e-01
  1.4383519e-01
 -3.0586949e-01
 -6.5473956e-01
 -9.6674278e-02
 -7.1097666e-01
  5.5750877e-01
  3.2422921e-01
  1.0762639e-01
 -6.6833568e-01
 -1.3168810e-01
 -3.6826926e-01
  3.3393303e-01
  1.5648035e-02
 -7.0455319e-01
 -4.3962067e-01
 -1.1646645e-02
  6.8306386e-01
 -5.8142550e-02
  1.6173422e-01
  2.3570642e-01
 -8.3440638e-01
 -2.5676095e-01
 -5.7956755e-02
  4.4660664e-01
  4.7244179e-01
 -1.9468722e-01
 -2.3636222e-01
 -7.3854320e-02
  2.8656444e-01
  2.0935896e-01
  2.2064751e-01
 -2.4647394e-01
 -8.0780578e-01
  2.4375889e-01
 -7.7326484e-02
  5.9901416e-01
 -2.2020060e-01
  2.5651467e-01
  7.4672750e-03
  1.6664357e-01
 -3.6621749e-01
  1.4217143e-01
  4.5408371e-01
  3.1432621e+00
  8.8448995e-01
 -2.4336565e-01
  9.3287632e-02
 -3.5316821e-02
 -7.5323099e-01
 -5.1014239e-01
 -1.9049104e-02
  1.1408973e-01
  3.9273724e-01
  4.1138789e-01
 -2.7584270e-01
 -9.8392767e-01
 -4.3474454e-01
 -1.3206793e-01
  3.6989263e-01
  1.7312963e-01
  2.5017050e-01
 -8.1165814e-01
  1.0244380e-01
 -6.1257929e-01
  6.3003767e-01
 -6.6015162e-02
  3.3672807e-01
 -3.0764589e-01
 -2.5972784e-01
 -2.5047398e-01
 -9.6581310e-01
 -3.9599800e-01
  1.2058889e-01
  2.5360888e-02
  1.1004673e+00
  1.1283363e+00
  8.9489776e-01
 -9.3754452e-01
 -8.2073289e-01
 -2.1082468e+00
 -2.0413528e-01
 -6.4656854e-01
 -5.1745892e-01
  1.3276556e+00
 -6.2413585e-01
  7.0692241e-01
 -1.0529735e+00
  4.7613180e-01
 -6.8350561e-02
  2.4562302e+00
  6.2308788e-01
 -7.2948390e-01
  1.1861686e+00
 -3.8432014e-01
 -1.3075712e-01
  1.6922539e+00
 -7.1627480e-01
  1.8038853e+00
  3.1855247e+00
 -1.4534739e-01
 -5.4993707e-04
 -1.3187970e-01
 -1.4001901e+00
  4.3399552e-01
 -6.5737736e-01
 -3.8035554e-01
  3.5499215e-01
  1.2985824e-01
 -3.5761231e-01
 -1.5366657e+00
  3.8853103e-01
  1.5762507e+00
  5.9377968e-01
 -7.0405654e-03
 -2.8777664e+00
 -5.1144886e-01
  1.1863185e-01
  4.2624471e-01
 -7.5181472e-01
 -2.5335369e-01
  8.0393493e-01
  7.0365250e-01
 -2.8802839e-01
 -5.3573507e-01
 -1.8170388e-01
  5.1177729e-02
  5.4889399e-01
 -4.3247983e-01
  1.2817901e+00
  8.1630582e-01
 -1.5626791e+00
 -2.5960448e-01
 -2.1717463e-01
  9.0742193e-02
  1.5004440e-01
 -3.3972710e-01
 -1.4482719e-01
  2.2267658e-01
 -2.8550911e-01
  5.9269769e-03
  3.1241310e-01
 -1.7663009e-01
 -2.0868242e+00
 -1.4271830e+00
  1.0015982e-01
  2.0476551e+00
  8.5193717e-01
  1.2586886e+00
 -2.2537330e-02
 -1.7563173e+00
  3.1846493e-01
  1.9319062e+00
  7.0721954e-02
 -2.2395723e-01
 -7.9789597e-01
 -3.5732377e-02
  9.1974807e-01
  3.9816275e-01
 -7.1069941e-02
 -1.0015684e-01
  3.6315554e-01
  3.6356072e+00
 -1.9019232e+00
  1.0722661e+00
  3.7334812e-01
  1.4619051e-01
 -1.6652131e+00
  3.9763250e+00
  7.2390008e-01
  1.8109850e+00
  7.8000462e-01
  5.8391619e-01
  5.0135916e-01
 -3.8607436e-01
 -6.4335398e-02
 -3.7931094e+00
  6.3597900e-01
 -2.4227859e-01
 -4.4679880e-02
 -2.4883017e-01
 -5.0240225e-01
 -4.2685769e-03
  5.7282513e-01
  3.3022347e-01
  5.0782299e-01
  1.8556373e-01
 -2.4014282e+00
  1.4598508e-01
  2.3926347e-01
  8.2302874e-01
  8.7918097e-01
  2.0523057e+00
  8.6752188e-01
  1.3351126e-01
 -2.6668563e-01
 -6.2591958e-01
  4.5379525e-01
 -6.2216491e-01
 -3.3488300e-01
 -4.4258881e-01
 -2.4582504e-01
 -1.3574089e-01
  3.1051955e-01
  3.6209047e-01
  2.5331160e-01
  2.2713214e-01
 -1.7412987e-01
  1.9778709e-01
  6.4055878e-01
  9.5777042e-02
  3.2312244e-01
  6.6931242e-01
 -8.9250751e-02
  3.7048984e-01
 -9.4817394e-01
  3.1105092e-01
  7.6441504e-02
  5.0185198e-01
  2.5959089e-01
  9.0247315e-01
 -8.4547222e-02
 -6.0416293e-01
  2.5157484e-01
 -7.6749766e-01
  5.4471362e-01
  8.5514709e-02
  1.6461734e-01
 -3.3796871e+00
 -3.5071048e-01
  1.0389868e-01
 -1.2968498e-01
 -7.0866078e-01
 -1.5721533e-01
 -1.3419114e-01
  1.1380820e+00
 -4.1729698e-01
 -2.4720624e-01
 -1.9091004e-01
  2.8700954e-01
  6.8069082e-01
  1.2127665e-01
  6.8499923e-01
  1.8292056e-01
 -9.8777764e-02
 -6.9127478e-02
  5.4250538e-01
 -9.9604182e-02
  6.6463333e-01
 -1.5310179e-01
  9.7646192e-02
  1.7670126e-01
  1.7981883e+00
  2.4299557e+00
  1.0285659e+00
 -3.1457344e-01
 -8.0963314e-01
 -1.3353273e-01
  1.4152133e+00
  1.6736422e+00
 -1.0768609e+00
 -5.1595430e+00
  9.9481404e-01
  1.7877750e-01
 -4.8385733e-01
 -1.4267111e+00
 -6.4145410e-01
  5.3486001e-01
 -1.6714792e+00
  4.6135017e-01
 -2.2667329e+00
  6.1488819e-01
  8.6714065e-01
  1.3461118e+00
 -1.6533999e-01
  3.3302033e-01
 -1.1176076e-01
  2.2475667e-01
  3.0495799e-01
 -3.7634918e-01
 -3.4336933e-01
 -3.7797630e-01
  1.2473046e-01
  1.6606208e+00
  7.6845473e-01
  2.0918800e-02
  4.2804861e-01
  3.9151621e-01
 -1.4811137e+00
 -1.6963241e+00
 -6.4645630e-01
  6.6356844e-01
 -3.1280896e-01
  2.1595443e-02
 -3.3123329e+00
 -1.7944480e+00
  6.1460185e-01
 -2.5214076e-01
 -8.2660478e-01
  1.7747577e-01
 -1.8848954e-01
  4.7860566e-01
  1.1600091e-01
  6.7282587e-01
  1.0130982e-01
  7.4721307e-01
  5.8766969e-02
  9.4846630e-01
 -4.0276432e+00
 -2.3049766e-01
  3.6424536e-01
 -2.4999835e-01
 -1.3301112e-01
  2.5282311e-01
  2.4828970e-01
  2.2838862e-01
 -1.5518102e-01
 -6.4061356e-01
  9.7718854e-03
 -4.0973318e-01
 -8.8071391e-02
  1.5664295e+00
  2.2778454e-01
  9.6049744e-01
 -1.5890230e-01
  3.2990732e+00
 -1.4523906e+00
 -1.5989234e+00
  9.4853657e-01
  1.0199422e+00
  1.0865800e+00
  7.4181122e-01
 -8.4450817e-01
  2.2573557e+00
  3.0903488e-01
 -1.2176682e+00
 -7.8695530e-01
  1.2242378e+00
 -9.0310588e-02
  4.0707302e-01
 -1.9195985e+00
  2.8897450e+00
  1.0501794e+00
  4.4932330e-01
  1.0343692e+00
  2.0864477e+00
  2.6732367e-01
 -4.5873916e-01
  9.1921765e-01
 -6.1565924e-01
 -1.6354366e-03
 -3.1709069e-01
  5.3513718e+00
 -1.3444159e+00
  4.1092271e-01
  2.3082799e-01
  2.9232222e-01
 -5.7247454e-01
 -1.0528066e+00
 -7.6960927e-01
 -7.9133987e-01
  8.8632715e-01
 -6.7370081e-01
 -3.0295614e-02
  1.3944082e-01
 -1.8393114e-01
 -4.3604347e-01
 -2.2391824e-01
  3.4750298e-02
 -7.8756613e-01
  7.7667110e-02
 -2.1512103e-01
  4.6008360e-01
 -2.8981039e-01
  7.7696794e-01
  1.9236775e-01
  1.7828088e-01
  1.6855419e+00
 -2.0507653e+00
 -4.1225353e-01
  3.0429855e-01
 -2.9856876e-02
  2.4300769e-01
  1.4514022e-01
 -2.3359492e-01
  9.4433701e-01
 -2.8023366e-03
 -6.0686916e-02
 -5.9437328e-03
 -3.8718632e-01
  4.2678034e-01
  5.9564394e-01
 -6.8282002e-01
 -2.9953644e+00
 -9.8772967e-01
 -8.8104904e-01
  9.6718915e-02
  7.7471113e-01
 -5.8106256e-01
  5.1849627e-01
 -1.5078410e+00
  1.4911106e+00
 -7.2889239e-01
 -1.2879692e-01
  2.0186754e-01
  1.9642948e+00
 -9.6197045e-01
  5.1207596e-01
 -1.0548589e-01
 -5.6240600e-01
  1.0314537e+00
 -1.7383866e+00
 -9.7453547e-01
 -2.8757463e+00
  5.8093909e-02
  1.5982739e+00
  1.4497651e-01
 -1.4922124e+00
 -1.0580447e+00
  9.5407352e-02
 -1.9062138e-01
 -2.7817345e-01
 -3.5694045e-01
  8.0129510e-01
  5.5614012e-01
  3.9805409e-01
 -5.2927506e-01
 -4.4742956e+00
  6.4363134e-01
 -1.6674234e+00
 -6.3815117e+00
  2.6709053e-01
  9.4207518e-02
 -1.5547607e+00
  1.3103956e-01
  4.2875168e-01
  3.7604220e-02
  4.0319782e-01
 -6.2804997e-01
  4.1071251e-01
  1.9616393e+00
 -4.2374089e-01
 -3.9406741e-01
  3.0026397e-01
 -9.0946764e-01
  3.3789368e+00
 -3.6899021e-01
  1.2958300e+00
 -3.2415774e+00
 -2.2460437e+00
  1.0199134e+00
 -4.6022385e-02
 -6.3843954e-01
 -3.1608504e-01
 -5.2754140e-01
  1.3044249e-01
  1.1568666e+00
  2.1511180e-02
 -5.1893854e-01
  1.1880077e-01
  1.0289373e+00
  4.8648828e-01
 -2.2427864e+00
 -1.5860322e+00
 -2.0155594e+00
  2.3066385e+00
 -1.1922554e+00
 -2.7109292e-01
 -5.1853955e-01
 -1.0914389e+00
  6.2754564e-02
  4.2185359e-02
 -1.5434456e-01
 -9.9766165e-01
  1.2360036e+00
 -1.6785288e+00
 -2.3491569e+00
 -9.4619143e-01
  1.4232755e+00
 -1.1635649e+00
  3.9986238e+00
 -1.9630046e+00
 -1.0282674e-02
 -3.4523413e+00
 -1.2117659e+00
 -1.8967282e+00
  1.8224937e-01
  3.7313262e-01
  9.2484677e-01
  1.1714286e-01
  3.2767197e-01
 -1.6698686e-02
 -5.2875733e-01
 -2.1909624e-02
 -4.7087052e-01
  6.4966902e-02
 -1.3288473e-01
  1.9543320e-01
  3.7138173e-01
 -1.6721033e-01
 -1.5353703e-02
  5.7102352e-01
 -3.0753177e-01
  1.2452438e-02
 -5.5660719e-01
 -2.6943719e-01
  3.0496195e-01
  2.5602090e-01
  1.6104634e-01
  2.0297290e-01
 -7.7030741e-02
 -3.0972782e-01
  7.6881528e-02
  5.3459328e-01
  3.9035231e-01
  3.9136180e-01
  1.2156111e+00
  7.1787983e-01
  1.0647526e-01
 -1.7850570e-01
 -3.8906065e-01
  2.5786605e-01
 -1.2862377e-01
  3.1278726e-01
  9.9635041e-01
 -3.7512675e-01
 -6.4734197e-01
 -1.7974457e+00
 -1.3449810e-01
 -2.4409169e-02
 -3.1682545e-01
  1.1280007e+00
  1.0036396e+00
 -2.1516347e+00
 -1.8895133e+00
 -1.0603952e+00
  1.4084730e+00
  1.6066061e+00
  1.5045255e+00
  1.2176545e-01
 -1.4974581e+00
  9.9044943e-01
  4.9187177e-01
  8.0184799e-01
 -4.0557814e+00
 -7.1235180e-01
 -1.0968828e-01
  9.4569063e-01
  1.2539418e+00
 -9.6087717e-02
  1.7854635e-01
  1.0672562e+00
 -1.9093169e+00
  3.4678888e-02
  2.7665937e+00
 -1.5146300e+00
  6.1187452e-01
 -6.6534686e-01
 -1.7852211e-01
  1.0143886e-02
 -1.0096353e+00
 -1.0018921e+00
 -1.5870748e-01
  1.3348176e-01
 -3.5105851e-01
 -1.9046592e-02
  1.6806211e+00
 -2.4675597e-01
 -2.3353705e-01
 -1.2965670e-01
  1.2592918e-02
  1.5784897e+00
 -1.0877913e-01
 -1.5448932e-01
  7.7035475e-01
 -3.0594632e-02
 -2.9879335e-01
 -1.5471253e-01
  4.3614107e-01
  7.9053484e-02
 -1.9477950e-01
 -1.2479764e+00
  9.2663482e-02
 -3.8112083e-01
 -2.9086795e-01
 -1.0551646e+00
  1.7885101e-01
  7.5274795e-02
  7.6105797e-01
 -2.6973423e-01
 -8.0873173e-01
 -1.5024523e-01
 -2.1501678e-01
 -3.3602819e-02
  5.7391894e-01
 -1.8477558e-01
 -2.0681672e+00
 -4.5215461e-01
 -9.3626332e-01
 -2.5827952e-02
 -3.8013864e-01
 -2.1590762e-01
  2.9078224e-01
 -4.8824981e-01
 -1.1841660e+00
  3.7285683e-01
 -1.6927923e-01
 -3.7999630e-01
  7.6970482e-01
  2.2549368e-02
  3.8961783e-01
  5.7719436e-02
 -2.3756804e-02
  6.7556393e-01
  1.2731977e-01
  6.7867160e-01
  7.2879219e-01
 -1.5525244e-01
  4.5124376e-01
 -5.1327825e-01
  1.1117559e-01
  6.6818100e-01
 -2.2871771e-01
  9.6734887e-01
  1.9524729e+00
 -2.9836056e+00
  5.9953409e-01
 -2.6752806e-01
 -1.0646001e-01
  1.1833531e-01
  3.9809991e-02
 -1.5197735e-01
 -3.7366033e-01
 -2.2681731e-01
  4.6381038e-01
  5.1827207e-02
  1.4640680e-01
  3.0171379e-01
 -9.7771831e-02
  1.2151716e+00
  1.6655546e-01
 -1.2922639e-01
  1.9580083e-01
 -2.0406394e-01
 -1.1688627e-01
 -4.5385507e-01
  2.5037667e-01
  5.7571560e-01
 -5.4263443e-01
  2.6369041e-01
 -1.8248154e-01
 -7.8016460e-01
  2.4777168e-01
 -4.1155100e+00
  1.4662972e-01
 -5.1133730e-03
 -3.3558893e-01
 -1.0054827e-01
 -7.4645326e-02
 -2.3222730e-01
  4.9493489e-01
 -2.4505135e-01
 -1.3477007e-01
 -3.5340619e-01
 -1.8814579e-01
  6.1347121e-03
  9.1213919e-02
 -7.0868129e-01
  4.7893099e-02
 -1.3242161e-01
  5.4696721e-01
 -1.5551105e-01
 -1.2050875e-01
 -4.8711154e-01
 -1.5161867e-01
  1.9011398e-01
 -8.1249721e-02
 -1.5557273e-01
 -1.3873414e-02
  8.2333744e-02
  2.3868051e-01
 -1.8352134e-03
 -4.1154110e-01
  4.7330090e-01
  2.5197322e-02
  1.8068165e-01
  7.2074425e-01
  6.8918370e-02
  1.4121787e-01
 -2.6668566e-01
  4.0854254e-01
  2.8291842e-01
 -1.6047670e+00
  3.3082971e-01
 -5.6981367e-01
  4.7189954e-01
  5.2958310e-01
 -2.3596455e-01
  8.2730818e-01
 -6.0520285e-01
  1.1570583e-01
 -3.0993482e-01
 -2.2603343e-01
 -4.4380084e-02
  5.4121796e-02
  2.9627410e-01
 -6.4981180e-01
 -8.6735830e-02
 -1.6130219e+00
  1.0221300e-02
  3.4998028e+00
 -1.2126303e+00
 -6.7403603e-01
  8.2567379e-02
  1.3065970e+00
  2.5493705e+00
 -3.5552912e+00
  5.7425022e-01
  1.4843785e+00
 -5.2172625e-01
 -1.4561621e+00
 -2.8456972e+00
  1.3962456e+00
  3.4442713e+00
 -1.0239124e+00
  2.7578402e-01
  3.0840552e-01
  1.5007268e-01
 -6.9529253e-01
 -9.1193056e-01
  8.6873573e-01
  3.5280862e-01
  2.7233008e-01
 -2.1158051e-01
 -4.4706756e-01
 -1.2173616e+00
  1.0719589e+00
 -9.1909087e-01
  3.2473269e+00
 -5.1352447e-01
  4.5050290e-01
 -6.2239546e-01
  5.1138741e-01
 -6.4471513e-01
  4.4746809e-02
  3.0524485e+00
  3.5334549e+00
  4.4299002e+00
  6.1581101e+00
 -1.4230624e+00
 -8.1367928e-01
 -9.1758150e-01
 -2.9415607e-01
  5.1942344e+00
 -4.2018875e-02
  1.6394712e+00
  1.3105285e-01
  1.5905303e-01
 -2.0281332e+00
  7.6750326e-01
  2.5762718e+00
  2.1395798e+00
 -6.8394929e-01
  3.6179844e-01
  2.1806443e+00
  2.5918558e+00
 -2.6186495e+00
 -4.2583978e-01
 -3.1982677e+00
  5.0887066e-01
 -1.3547263e-01
  6.7223686e-01
  1.2134398e+00
 -6.2221044e-01
  1.0479709e-01
  2.4817514e-01
 -1.7442927e-01
  2.1794301e-01
 -2.3099294e+00
 -7.7976622e-02
 -5.6823897e-01
 -8.7469900e-01
  5.0402296e-01
 -2.3461645e+00
 -5.5322897e-01
 -3.8312218e-01
 -2.3033799e-01
 -3.6513582e-02
  5.1904571e-01
  9.3734723e-01
  5.8987617e+00
  2.8759310e-01
 -2.2025558e-01
  2.6635548e-01
  6.7791152e-01
 -6.0533579e-02
 -2.8655035e-02
  1.7935900e-01
  3.8158727e-01
  4.0111639e-02
  4.1185372e-02
  5.1263631e-03
 -6.3791476e-02
  3.0618754e-01
 -1.3314117e-01
  2.7026385e-02
  4.3134302e-02
 -1.8517047e-01
 -8.0364272e-02
 -3.0037311e-01
 -7.2749786e-02
  3.1111729e+00
 -2.4313264e+00
 -1.2464921e+00
  2.6328497e+00
 -4.4921094e-01
  1.1144464e+00
  8.2290483e-01
  1.3440204e+00
 -9.3327694e-02
  2.4656153e+00
 -2.4626522e+00
  1.9316901e-01
  7.3361951e-01
  2.9439849e-01
 -2.7621429e+00
 -1.9732617e+00
  8.0860370e-01
  4.9247007e+00
 -2.9364901e+00
 -4.1920271e+00
 -1.3421080e+00
 -3.1599514e-02
 -1.1413381e+00
 -1.2784829e+00
 -2.1125348e+00
  9.3501008e-01
 -8.4489542e-01
 -4.7447360e-01
 -3.6185536e-01
 -2.8987112e+00
 -1.0306853e-01
 -4.3268924e+00
  2.1352765e-01
  2.1711491e-01
 -1.7497909e-01
 -1.7833846e-02
  1.0747173e+00
 -2.1105753e-01
 -2.9918859e+00
 -2.2824910e+00
 -2.2713110e+00
 -9.0230185e-01
 -1.8364034e+00
 -2.9351711e+00
  1.9329839e+00
  1.7247709e+00
 -2.9879897e+00
 -4.5015624e-01
 -2.7135308e+00
  6.7866868e-01
 -5.6100065e-01
 -1.0166076e+00
 -3.1955328e+00
 -2.8515813e+00
 -3.0259788e+00
 -3.2814705e+00
  2.0759203e-01
 -2.4066248e+00
  1.0008942e+00
 -1.3979684e+00
 -3.2026896e+00
 -7.4512142e-01
  9.0101206e-01
 -2.9541857e+00
 -7.2062957e-01
 -2.5421696e+00
  1.4565629e+00
  5.5936980e-01
 -9.4014359e-01
 -3.2687066e+00
  8.9489423e-02
  2.2465093e+00
 -1.8249049e+00
  3.2055626e+00
 -3.1870682e+00
  4.3890849e-01
  2.6116567e+00
  3.4461873e+00
  6.2072152e-01
  1.8194491e-01
 -2.5560496e+00
  7.0086908e-01
 -6.8894660e-01
 -3.4158363e+00
 -2.4294215e-01
  3.2018523e+00
 -2.7531579e-01
  9.5691705e-01
  4.4729781e-01
  9.0917969e-01
  3.3629236e+00
 -2.3279972e+00
  2.7258291e+00
  1.1344851e+00
 -2.0549672e+00
  2.3373640e+00
  3.0670764e+00
  3.0566397e+00
  1.4005153e-01
 -2.0699027e+00
 -3.4930000e-01
 -3.3594005e+00
  2.2338299e-01
  2.4445014e+00
  1.7139505e+00
 -3.1903369e+00
  9.9442703e-01
 -3.7151055e+00
 -2.4277041e+00
  3.0124447e+00
 -3.0443261e+00
 -1.0969704e+00
  9.6694809e-01
 -3.2957640e+00
 -3.3017069e-01
 -7.3477161e-01
 -6.2768831e+00
  8.5443449e-01
  3.1161172e+00
  1.1202233e+00
  9.7475976e-01
 -9.7389412e-01
  1.7535117e-01
  1.5962687e+00
  1.3564481e+00
 -1.8708318e+00
  2.9262686e+00
  1.5375832e+00
  5.5445826e-01
  1.0363809e+00
  8.7818778e-01
 -1.7511441e+00
  2.6848273e+00
  2.2863569e+00
  1.8230987e+00
  2.5132003e+00
  1.6321774e+00
  5.0435001e-01
 -1.9966295e+00
  2.2867649e+00
 -5.8934551e-01
 -1.4150330e+00
 -1.2109665e+00
  2.0390251e+00
 -1.2879739e+00
 -1.6857103e+00
  2.1311738e+00
  1.4832942e+00
  1.3375077e+00
  3.2580011e+00
  1.2829922e+00
 -2.5588968e+00
  3.1431868e+00
 -1.7149047e+00
  1.7830471e+00
 -1.2267457e+00
 -3.3962030e+00
 -4.5329151e+00
  8.0944228e-01
 -3.0955369e+00
  9.9650216e-01
 -1.3307598e+00
 -5.9776449e-01
  1.0503056e+00
  2.0708203e+00
 -3.2241724e+00
  1.0414306e+00
 -1.0489855e+00
  1.0058267e+00
  8.0544525e-01
 -2.2594731e+00
  2.1935709e-01
 -9.1036367e-01
  8.8513374e-01
  4.3007371e-01
 -1.6857879e+00
 -1.0638441e+00
 -1.0212880e+00
  1.3026086e+00
  5.6910115e-01
  1.0848719e+00
  3.7946849e+00
  2.3416111e+00
  3.2664770e-01
 -8.4277529e-01
  1.3133687e+00
  2.5200109e+00
  2.8141286e+00
  5.5820477e-01
 -1.5730203e+00
  1.5676240e+00
 -1.7896355e+00
 -1.6738685e+00
  4.0893450e+00
  1.1160922e+00
  2.9768544e-01
  1.1295110e+00
 -5.6150138e-01
 -4.2603794e-01
  6.6148776e-01
 -4.7114351e-01
 -4.9027562e+00
  8.8807702e-01
 -3.7585437e-01
  9.7563154e-01
  7.6829970e-02
  1.2596940e-02
  1.5860090e-01
  1.2220380e+00
 -5.7394147e-01
  3.4164843e-01
 -1.5342492e+00
  2.0362837e+00
 -2.9627579e-01
 -4.7595501e-01
  4.7802809e-01
  1.5953046e+00
  1.3035813e-01
  1.4961556e-01
 -2.6682019e-01
  5.5903584e-01
 -7.7998346e-01
 -2.4232742e-01
  3.7045274e-02
  3.7179455e-01
  5.1462221e-01
 -4.0004644e+00
  5.7415611e-01
  7.3526371e-01
 -1.7704797e-01
  8.6022389e-01
  3.9339130e+00
  6.3162982e-01
  2.1818941e+00
 -9.4403143e+00
  3.8116832e+00
 -3.4519413e+00
 -8.7453270e-01
  8.0942070e-01
 -9.0069145e-01
  9.7485323e+00
  4.4367576e+00
  2.7424297e+00
  1.3240416e+00
  1.7792497e+00
  2.5708292e+00
 -1.0892906e+00
  1.8063757e+00
  1.3196930e+00
 -3.4311929e-01
  1.3738118e+00
  2.5153782e+00
  2.1676574e+00
 -4.2463675e-01
  1.4573201e+00
  1.2920095e-01
 -3.2553166e-01
 -1.6062993e+00
 -7.3886085e-01
  3.4287849e-01
  6.0298938e-01
 -9.3289638e-01
 -6.4655900e-02
  9.0934455e-01
 -7.0090532e-01
 -6.9125915e-01
 -2.6795809e+00
 -3.8911307e+00
 -1.3458226e+00
  9.2768326e+00
 -4.7664288e-01
  4.2741138e-01
 -8.1430608e-01
 -1.6898540e+00
  1.8061882e-01
 -3.3752301e+00
  1.1404089e+00
  1.9107500e+00
 -1.3316636e+00
  5.2126374e+00
 -2.1656433e-01
  1.7642397e+00
  1.6723315e+00
 -3.2949822e+00
  9.4110042e-01
 -3.2583770e-01
  8.5936505e-01
 -4.3571781e-02
 -8.7941980e-01
  2.9648817e-01
  3.9207304e+00
 -3.9476659e+00
 -7.2056621e-01
  1.3022070e+00
 -2.3589258e+00
  1.8218961e+00
 -2.9351165e+00
 -6.4878456e-02
 -3.6390787e-01
  4.4958833e-01
 -1.8311160e+00
  2.9467900e+00
  1.7450861e+00
  7.3983711e-01
 -3.7130103e-01
  2.5775820e-01
  1.1637057e+00
  4.7526422e-01
  5.3861713e-01
  2.4997404e-02
 -2.2708192e+00
  1.7897388e-01
  9.2545414e-01
  5.1049125e-01
  1.3613752e+00
  1.7304589e+00
 -1.7293975e+00
  2.6969418e-01
  4.5580471e-01
  9.6249953e-02
  1.8590806e+00
 -7.2083813e-01
 -1.1209705e+00
  1.9706045e-01
  3.5437685e-01
  7.3852849e-01
  5.6196827e-02
 -4.1028458e-01
 -3.7243503e-01
 -2.9713470e-01
  6.9500995e-03
 -3.8011105e+00
  2.3899002e-01
 -2.1162039e-01
 -5.7070422e-01
  5.5002370e+00
 -2.8861959e+00
 -2.4543581e+00
  7.2675002e-01
  5.0009751e+00
  9.7838712e-01
 -3.4182646e+00
  3.0250007e-01
  1.0840993e+00
  9.1552007e-01
 -2.1918252e-01
 -1.7706265e+00
  1.6800747e+00
  3.7694031e-01
 -3.8825727e-01
 -1.7755666e+00
  4.0805554e+00
  2.4701033e+00
  3.8097557e-01
  4.6156022e-01
  8.3708823e-01
 -2.4622860e+00
  4.2121607e-01
  1.7326667e+00
  5.3493869e-01
  1.8794779e-01
 -7.5667632e-01
  3.9444223e-01
 -2.9146782e-01
 -3.4726474e-01
  4.2576337e-01
 -6.8397474e-01
 -2.8419394e+00
  3.0237475e-01
 -6.2685855e-02
 -2.9467537e+00
  2.2039640e+00
 -3.8566178e-01
 -1.3112496e-01
 -6.7660457e-01
 -3.1995864e+00
 -2.6575744e+00
 -1.8940941e+00
 -2.9992270e-01
  3.2304547e+00
 -8.4298277e-01
  1.2405035e-01
 -3.1776199e+00
  2.4976785e+00
  1.5517752e+00
 -2.1580207e-01
 -1.8696688e+00
 -1.3435270e+00
 -1.5096021e+00
  2.7818203e+00
 -2.0769355e+00
 -1.0138810e-01
  4.0984554e+00
 -3.4008961e+00
  1.4536913e-01
  3.4198269e-02
  3.4063615e-02
  6.2099177e-01
 -8.8691187e-01
  1.7925477e-01
  7.3436385e-01
  4.4306841e-01
  5.3957057e-01
 -9.1016394e-01
 -6.9421875e-01
 -1.1227767e+00
  2.4536159e+00
  5.7861185e+00
  3.0299449e+00
 -2.9898965e+00
  6.0904222e+00
  1.1370806e+00
 -5.8897853e-01
  2.2124290e+00
 -3.0109283e-01
  5.8413758e+00
 -2.6397958e-01
  2.4826612e+00
 -1.8858445e+00
 -2.5630720e+00
  1.2275996e+00
 -5.0106673e+00
 -7.1643239e-01
  3.2059059e+00
 -1.0002118e-01
 -7.6550180e-01
 -1.8469549e+00
 -1.2519308e+00
  1.6076730e+00
  1.4546692e+00
 -5.2944851e-01
 -2.4609773e+00
 -1.2376446e+00
  6.6678041e-01
 -5.6394190e-02
  6.3455421e-01
 -6.1428362e-01
  3.1779015e-01
 -3.2144499e-01
 -4.7689626e-01
 -3.2602915e-01
 -3.9774168e+00
  3.3925090e+00
 -2.1805987e+00
 -1.1611711e+00
  2.1578436e+00
 -1.0113823e+00
  5.9520174e-02
 -1.1133065e+00
 -1.5938488e+00
 -9.7782087e-01
  2.7804544e+00
 -1.0614108e+00
 -3.4791106e-01
  1.1096520e+00
  2.2478728e+00
 -1.4219129e+00
  8.8064247e-01
 -6.3685410e-02
  7.9170036e-01
  9.4556785e-01
  3.4536526e+00
 -8.4594935e-01
 -4.4937718e-01
 -5.5025506e-01
  1.8121365e+00
 -1.7891072e-01
 -1.4118605e+00
 -8.8393092e-02
  2.3555087e-01
 -2.1106784e+00
  3.7906361e-01
  5.9109080e-01
 -1.5323962e+00
 -6.1628628e-01
  8.1565028e-01
  7.4673867e+00
  6.9263587e+00
  2.7797732e+00
 -2.5202723e+00
  1.5821406e+00
 -2.1130376e+00
  2.2420826e+00
  2.1523869e+00
 -1.9729494e+00
 -7.3056644e-01
  2.6917344e-02
  9.7335523e-01
 -1.0235032e+00
 -2.2062337e+00
  6.3612774e-02
 -2.2078488e+00
 -6.9906282e-01
  1.5649366e+00
  1.4376539e+00
  9.4128001e-01
 -2.3471253e+00
  8.2588869e-01
 -4.8935074e-01
  2.2158840e+00
 -3.1851918e-02
  1.4883099e-01
 -4.1660576e+00
 -3.2395005e-01
  2.5580208e+00
  1.4207399e+00
 -7.1742141e-01
 -2.2353625e+00
  1.2794065e+00
  2.3909897e-02
  1.7406863e+00
 -4.5993525e-01
  9.1270781e-01
  8.4817040e-01
  3.0195432e-02
 -4.7454429e-01
 -6.7971679e-03
  1.6498519e+00
